{, -0.11344462633132935, -1.043129324913025, -0.016729872673749924, -0.19706283509731293, 0.3547692596912384, 0.23257575929164886, -0.6526386737823486, -0.5905055403709412, 0.15110056102275848, 0.326424777507782, -0.9840242266654968, -0.8863422870635986, 0.11543846130371094, 1.1074079275131226, -0.30946898460388184, -0.22704128921031952, -0.34919750690460205, 0.08468600362539291, 0.8912672996520996, -0.36514657735824585, 0.060082804411649704, 0.5088683366775513, 0.25441402196884155, 0.895200788974762, -0.4925214350223541, -0.966164231300354, -0.7475470900535583, 0.6330868601799011, -1.1498744487762451, -0.14508821070194244, -0.5993368625640869, -0.6305216550827026, 0.6968258619308472, 0.5186858177185059, 0.3528846204280853, 0.3572824001312256, 1.21361243724823, -0.3886970281600952, 0.026391223073005676, 0.06581125408411026, 0.25949767231941223, -1.3128747940063477, 0.12108314782381058, -0.7375826835632324, 1.0074822902679443, 0.3197349011898041, 0.45545893907546997, -0.4662784934043884, -0.4171305298805237, 0.6493382453918457, -0.02507060207426548, 0.5500032901763916, -0.005813803989440203, 0.9026301503181458, -0.4021391272544861, 0.7990036606788635, 0.2451685070991516, 0.1342509388923645, 0.17179270088672638, -0.37160995602607727, -0.6506349444389343, -0.9751749634742737, 0.6753183603286743, 0.774448573589325, -0.6933884024620056, 0.2819627821445465, 0.7823817133903503, -0.07434294372797012, 0.1830056756734848, -0.14736337959766388, 0.3871522843837738, -0.5746895670890808, -0.8911751508712769, -0.5132573843002319, -0.6039955615997314, 0.46520116925239563, 0.009860744699835777, 0.5939387083053589, 0.33693164587020874, -1.3175917863845825, 0.3448098599910736, -1.9994993209838867, -0.7875216007232666, 0.21538279950618744, -0.5871240496635437, 0.3486875593662262, 0.8495044112205505, 0.5476981997489929, -0.615337073802948, -1.5814374685287476, -0.432524174451828, -0.7514511942863464, -0.3907170593738556, -0.2466268241405487, -1.0221436023712158, -0.3847895562648773, -0.14897964894771576, 0.9024642109870911, 0.24499395489692688, -0.10654038935899734, -0.3872293531894684, 0.3010491132736206, 1.3217861652374268, -0.5042859315872192, 0.025906357914209366, 0.2860385477542877, 0.5162703394889832, 0.7869248390197754, -0.36681175231933594, -0.5349704027175903, 1.1786012649536133, -0.2350742220878601, -2.061917781829834, 0.6907501816749573, 0.08197131007909775, 1.6016343832015991, -1.0560057163238525, 1.9300096035003662, -1.2776979207992554, 1.8173474073410034, 0.9383925199508667, -0.9199789762496948, 0.8462361097335815, -0.7377293109893799, 0.9453351497650146, -0.18940913677215576, -0.06996151804924011, 1.4016467332839966, -0.32770007848739624, 0.516801118850708, -0.7026816606521606, 0.7704358100891113, 0.6545576453208923, -0.8211548924446106, -0.8406147956848145, 0.8497763276100159, -0.5996066331863403, 1.1323416233062744, 0.02071271650493145, 1.0723103284835815, 0.910703718662262, 0.2985582947731018, 0.8200549483299255, -1.3481582403182983, -0.7164633274078369, 0.9649083614349365, 0.11121810972690582, -0.05446310713887215, 0.2582031190395355, -0.8884214162826538, 0.8663216233253479, 1.0412523746490479, 1.192723274230957, 0.2788369655609131, -0.5625017881393433, -0.13598273694515228, 0.4162041246891022, -0.08465272188186646, 0.5265393257141113, 0.2964411973953247, -0.3378426730632782, -0.4332443177700043, 0.1912200003862381, 0.7335053086280823, 0.16330456733703613, 0.13176825642585754, 0.34802353382110596, -0.7026353478431702, -0.5210230350494385, 0.20398791134357452, 0.3287392258644104, -0.008876566775143147, 0.0788302943110466, -0.285296767950058, -0.668067455291748, -0.11344851553440094, -0.10073722153902054, -0.041535668075084686, -0.03176112100481987, 0.2756762206554413, -0.45364776253700256, -0.32360225915908813, -0.16550445556640625, -0.036730941385030746, -0.8091995716094971, -0.09746783971786499, -0.14082874357700348, -0.20130085945129395, -0.15794076025485992, 0.0039070844650268555, -0.26379653811454773, 0.08596910536289215, -0.1912296563386917, -0.3921394646167755, -0.0070494357496500015, 0.704140841960907, 0.4924805462360382, -0.5019692182540894, -0.5225287079811096, -0.5022926330566406, -0.02507626824080944, 0.21270598471164703, -0.8136525750160217, 0.152103990316391, 0.581402599811554, 0.9153415560722351, 0.9708775877952576, 0.6962649822235107, 0.42514917254447937, 0.14142639935016632, 0.3234816789627075, 0.49946659803390503, 0.8127691745758057, 0.966450035572052, 0.6543656587600708, 0.5098152756690979, 0.5718087553977966, 0.22539740800857544, 0.2143360823392868, 0.6210346817970276, 0.9706690907478333, 0.3610672950744629, 0.4291914403438568, 0.6784282326698303, -0.01804417371749878, -0.21993982791900635, 0.055717583745718, 0.7190158367156982, 0.5622369050979614, 0.21653088927268982, -0.04878310114145279, -0.22590583562850952, 0.11200334131717682, 0.06780364364385605, 0.21610651910305023, -0.030636293813586235, -0.03409206494688988, -0.4613208472728729, -0.4999223053455353, -0.09193874895572662, -0.1920635998249054, -0.3254927098751068, -0.293612003326416, -0.35482057929039, -0.6049259901046753, -0.3969670236110687, -0.6687986850738525, -0.6664837002754211, -0.5319072008132935, -0.32079964876174927, -0.2362929731607437, -0.37119150161743164, 0.7786404490470886, 0.46690061688423157, 0.5748476982116699, 0.6619721055030823, 0.14905297756195068, -0.20372191071510315, -0.13322697579860687, -0.07043959945440292, 0.7569774985313416, 0.5709779858589172, 0.12633360922336578, 0.39304107427597046, -0.038711465895175934, -0.018965039402246475, -0.04459261894226074, 0.7805271744728088, 0.7053169012069702, 0.5282824039459229, -0.2016894519329071, -0.09649123251438141, -0.2619503438472748, -0.11470037698745728, 0.4854517877101898, -0.08840614557266235, -0.28662586212158203, -0.43826428055763245, -0.1751544177532196, -0.4063390791416168, -0.6239711046218872, -0.2500729560852051, 0.02641018107533455, -0.29064518213272095, -0.6815454363822937, -0.3328368365764618, -0.6478543281555176, -0.5337299704551697, -0.25651949644088745, -0.6175446510314941, -0.6568450927734375, -0.4127454161643982, -1.7511460781097412, -0.6472707390785217, -0.4934631884098053, 0.2533867657184601, -0.3109968602657318, -0.04584915190935135, -0.27304142713546753, -0.5320612192153931, -0.4411526620388031, 0.25359198451042175, -0.7155209183692932, -0.6634939908981323, -0.5607625842094421, -0.5966963171958923, -0.35316771268844604, -0.09959260374307632, 0.04500282183289528, -0.40820014476776123, -0.38992053270339966, -0.19088570773601532, -0.5294962525367737, -0.3082338869571686, -0.22343400120735168, -0.0007174932979978621, 0.1497076004743576, -0.2231166660785675, -0.44110599160194397, -0.20115360617637634, -0.11062473058700562, 0.12716665863990784, 0.07993396371603012, 0.462298721075058, -0.009119385853409767, 0.09550672769546509, 0.19219665229320526, 0.3671737611293793, 0.35234710574150085, 0.7322846055030823, 0.1410037726163864, -0.04654105007648468, 0.05096614360809326, 0.61637282371521, 1.174079179763794, 1.0345714092254639, 0.1566646248102188, 0.2759421169757843, 0.11553862690925598, 0.23717235028743744, 0.8385310769081116, 0.9093321561813354, 1.0038468837738037, 0.6241256594657898, 0.37783220410346985, -0.13851220905780792, 0.5238237380981445, 0.9704293012619019, 0.38570693135261536, 1.0079891681671143, 0.20240122079849243, 0.28652307391166687, 0.7503345012664795, -0.6254735589027405, -0.49794238805770874, -0.616142749786377, -1.0629000663757324, -0.8706895709037781, -0.287418931722641, -0.12439221888780594, -0.72500079870224, -0.7677665948867798, -0.9323043823242188, -0.5287123918533325, -0.2338767945766449, -0.3535841107368469, -0.365127831697464, -0.918836236000061, -0.6757411956787109, -0.8385868072509766, -0.6129502058029175, 0.017533358186483383, -0.15840168297290802, -0.3671436011791229, -0.37590542435646057, -0.027771100401878357, -0.05249635502696037, -0.17176541686058044, -0.09433367848396301, -0.08906160295009613, 0.36155521869659424, -0.6116482019424438, 0.13356314599514008, 0.26300355792045593, 0.056692175567150116, 0.27672892808914185, 0.30299827456474304, 0.5327485203742981, 0.0417550764977932, 0.2946522533893585, 0.12210849672555923, 0.7437714338302612, 0.745488166809082, 0.4999459683895111, 0.8069456219673157, 0.03946796804666519, 0.34363317489624023, 0.5286425352096558, 1.018367886543274, 0.5637903809547424, 0.7754293084144592, 0.8104506731033325, 0.43172889947891235, -0.20226551592350006, -0.24615103006362915, -0.07398408651351929, -0.24242010712623596, 0.19513610005378723, -0.24215087294578552, -0.19289982318878174, 0.1045701801776886, -0.3802226781845093, 0.14487412571907043, -0.39563286304473877, -0.22607240080833435, -0.6108604669570923, -0.3273216187953949, 0.44649171829223633, 0.2124439775943756, -0.21334853768348694, -0.8922677636146545, -0.5620236396789551, -0.21327097713947296, -0.2556462287902832, 0.6931753158569336, 0.5009065270423889, -0.2027619481086731, 0.18664348125457764, -0.7196293473243713, -0.3863343596458435, 0.13702693581581116, 0.4011036455631256, -0.317743182182312, 0.17185604572296143, 0.2790294289588928, -0.7652156949043274, -0.17287889122962952, -0.25989222526550293, 0.2082700878381729, -0.15115702152252197, -0.002045896602794528, 0.3992571234703064, 0.1712968796491623, -0.15092524886131287, -0.24581441283226013, -0.21289342641830444, 0.043242767453193665, 0.376787394285202, 0.8660006523132324, 0.4344382584095001, -0.3004869520664215, -0.0703100636601448, -0.5385798215866089, -0.30701744556427, -0.0350329615175724, 0.24882304668426514, 0.7346988320350647, 0.1997772455215454, -0.06017741933465004, 0.21253648400306702, -0.5636845827102661, -0.08222874253988266, 0.3543321490287781, 0.28577297925949097, -0.3944142758846283, 0.17392437160015106, 0.1344485729932785, -0.3606221079826355, -0.05959051474928856, 0.3954103887081146, 0.2934831976890564, 0.09232740104198456, 0.11950173228979111, 0.14510716497898102, -0.21157625317573547, -0.1792394518852234, 0.12189732491970062, 1.3154168128967285, 1.0590488910675049, 0.8984605669975281, 0.8905460238456726, -0.12884506583213806, -0.0023096739314496517, 0.5534745454788208, 0.5352925062179565, -0.145080104470253, 0.10388126969337463, 0.20676401257514954, -0.2429226040840149, -0.36071619391441345, 0.3627263009548187, 0.15898312628269196, 0.4874136745929718, 0.22047235071659088, -0.29689106345176697, -0.7506951093673706, -0.5918944478034973, -0.6425228118896484, -0.2631359398365021, -0.08561383187770844, -0.25708580017089844, -0.42008209228515625, 0.7988557815551758, 0.26544225215911865, 0.13448117673397064, 0.03720156475901604, -0.507073700428009, 0.29230180382728577, -0.22945542633533478, 0.0651080459356308, 0.1369016319513321, -0.23622892796993256, -0.04563918709754944, -0.2641904950141907, -0.03942049667239189, -0.3486948013305664, -0.05335349589586258, 0.533371090888977, 0.10066087543964386, -0.023672698065638542, -0.2745504081249237, -0.037252746522426605, -0.49823495745658875, -0.06486807018518448, 0.6216917634010315, 0.17056404054164886, -0.3037083148956299, -0.07171832770109177, -0.6198329329490662, -0.6169567108154297, -0.29457730054855347, 0.6297886371612549, 0.029616035521030426, -0.24196158349514008, 0.02903183177113533, -0.5944006443023682, -0.27815544605255127, -0.13651879131793976, -0.11075116693973541, -0.06225820258259773, -0.19585542380809784, -0.03682597726583481, -0.36154717206954956, 0.04166044294834137, -0.1522866189479828, 0.4111030697822571, -0.345491886138916, 0.0524233914911747, 0.45336511731147766, 0.018197983503341675, -0.1343502253293991, 0.06751348078250885, -0.5749092698097229, 0.4276880621910095, -0.0009444241295568645, -0.21985025703907013, -0.3377815783023834, -0.4623061716556549, -0.4749599099159241, -0.07737922668457031, 0.4687541127204895, 0.31901484727859497, -0.3361605107784271, -0.3715590536594391, -0.268295019865036, 0.12788012623786926, -0.12408554553985596, -0.02528916299343109, 0.22691740095615387, 0.2826134264469147, 0.03972379118204117, -0.14007307589054108, 0.036591555923223495, -0.37076282501220703, -0.1662784218788147, -0.15906761586666107, 0.16937150061130524, 0.83893883228302, 0.22201527655124664, -0.2036294788122177, -0.27279478311538696, -0.2656448483467102, 0.09033042192459106, 0.6913257241249084, 0.4404858648777008, 0.5497943758964539, -0.37707602977752686, 0.13249953091144562, 0.09643001854419708, 0.49502506852149963, 0.4895267188549042, -0.024353958666324615, 0.4147346317768097, 0.42058348655700684, 0.010124857537448406, 0.1416809856891632, 0.5312187671661377, 0.13052460551261902, -0.5541155338287354, 0.2887493968009949, 0.6646324992179871, 0.53373783826828, 0.5815812945365906, 0.1447737067937851, -0.5825380086898804, 0.0062338849529623985, 0.35637375712394714, -0.29847410321235657, 0.26023221015930176, 0.11161256581544876, 0.08112695813179016, -0.031225861981511116, -0.4110889136791229, -0.1479644924402237, -0.2540658414363861, -0.2684361934661865, -0.39240553975105286, -0.18103960156440735, -0.31868070363998413, 0.013042803853750229, -0.37363317608833313, -0.6468603610992432, -0.05227815732359886, -0.6947199702262878, -0.14910545945167542, -0.060825180262327194, 0.26742079854011536, 0.09455529600381851, 0.060038212686777115, 0.4266909062862396, -0.2692098617553711, -0.5893476009368896, -0.1838971972465515, 0.46262335777282715, 0.24948260188102722, 0.38801586627960205, 0.21304404735565186, -0.1904451996088028, -0.14932338893413544, -0.2974972426891327, 0.2882668375968933, 0.660490095615387, 0.13971377909183502, 0.04760197177529335, -0.16201366484165192, -0.005513470619916916, 0.25808224081993103, -0.5089156627655029, -0.06135954707860947, 0.015099875628948212, 0.27283143997192383, -0.15900477766990662, 0.1904684156179428, 0.23582956194877625, 0.02274300903081894, 0.38738998770713806, 0.3619363307952881, -0.06281798332929611, -0.10295473039150238, -0.09084545820951462, -0.350710928440094, 0.1454886794090271, 0.547451376914978, -0.06224404275417328, -0.5507357120513916, -0.31085485219955444, -0.22632621228694916, 0.02688870020210743, 0.07907793670892715, -0.04935895651578903, 0.24079054594039917, -0.4724797308444977, -0.7175729870796204, -0.5965055227279663, -0.19009709358215332, 0.052577149122953415, -0.07220068573951721, 0.35890185832977295, -0.06801853328943253, 0.3158562481403351, 0.22043807804584503, -0.1267746090888977, -0.32022207975387573, -0.09113912284374237, -0.11021111160516739, -0.4061228930950165, 0.6595875024795532, -0.03453053534030914, -0.20209749042987823, -0.07274802774190903, -0.21578431129455566, 0.01309163961559534, 0.4070115387439728, -0.12301347404718399, 0.20508962869644165, 0.1273849755525589, -0.32847827672958374, -0.3843592405319214, -0.2979113459587097, 0.36517763137817383, 0.05138159915804863, -0.15332947671413422, -0.5856068730354309, 0.4674905240535736, 0.8324535489082336, 0.5531564950942993, 0.03873688355088234, 0.09657294303178787, -0.2968267500400543, -0.07791253179311752, 0.40556028485298157, 0.24504147469997406, -0.0772046148777008, 0.2211359441280365, -0.014070812612771988, 0.1831575632095337, 0.3674964904785156, 0.2743353545665741, -0.17598487436771393, -0.5655698180198669, -0.49666112661361694, 0.03245944902300835, 0.40000030398368835, 0.375061571598053, 0.2890826165676117, -0.4800512194633484, -0.519220769405365, -0.32057392597198486, -0.1744627207517624, -0.45965880155563354, 0.02631358988583088, 0.2764752507209778, -0.2888135612010956, -0.19542767107486725, -0.04412679001688957, 0.2567448318004608, -0.0964963287115097, 0.2650788128376007, -0.07897605746984482, -0.07661394029855728, -0.4149068295955658, -0.004934285301715136, 0.3717915713787079, 0.36307239532470703, 0.11062408238649368, 0.1938730627298355, 0.3332299590110779, 0.2545473277568817, 0.5983151197433472, 0.23704726994037628, 0.09362432360649109, -0.32995468378067017, 0.7695798873901367, -0.17529362440109253, -0.15681259334087372, -1.0480185747146606, -1.6675294637680054, -1.1372413635253906, -0.7755270600318909, -0.5031877756118774, -0.38640129566192627, -0.7094517946243286, -0.7503405809402466, -0.813728392124176, -0.16434773802757263, -0.6771408319473267, -0.2575069069862366, -0.49703654646873474, -0.5814465880393982, -0.666429877281189, -0.49034273624420166, -0.27619943022727966, -0.6762734651565552, 0.08376782387495041, 0.03746660053730011, -0.19659192860126495, -0.1524215042591095, -0.19373652338981628, 0.0016488510882481933, -0.5589588284492493, -0.5964972376823425, 0.10470765829086304, 0.08327266573905945, 0.37564846873283386, 0.06918875128030777, 0.30069202184677124, 0.09491991996765137, 0.4313053786754608, 0.358630895614624, 0.5001177191734314, 0.06056389957666397, 0.21322906017303467, 0.5669798851013184, 0.32110610604286194, 0.5562801957130432, 0.7061886191368103, 0.7491714358329773, 0.6086614727973938, 0.7436994314193726, 1.02467679977417, 0.7419294714927673, 1.0906528234481812, -0.8732669949531555, 0.31784504652023315, 0.2600701153278351, -0.13592348992824554, 0.09108861535787582, 0.2999204397201538, -0.044411588460206985, 0.22492057085037231, 0.2177325189113617, -0.4249632954597473, 0.0379464365541935, 0.3818158209323883, -0.20535731315612793, 0.016009755432605743, 0.13339214026927948, 0.12082979828119278, -0.09903070330619812, -0.05622044950723648, -0.020566046237945557, 0.23670215904712677, 0.05608445405960083, -0.005477461498230696, -0.11543057858943939, 0.16634541749954224, 0.6602289080619812, 0.8790740966796875, 0.5805378556251526, -0.03612421080470085, 0.12531238794326782, -0.1410774290561676, -0.15851272642612457, -0.3032757639884949, 0.2078787237405777, -0.1936035007238388, -0.34745725989341736, -0.35927078127861023, -0.17664611339569092, -0.09645549952983856, -0.06904391944408417, -0.021877767518162727, -0.3305668532848358, -0.2950465977191925, -0.14367951452732086, 0.15281563997268677, -0.27437955141067505, 0.2877584993839264, 0.5491895079612732, 0.19538025557994843, 0.040147360414266586, -0.003400285029783845, -0.009923056699335575, -0.31671804189682007, 0.4061574935913086, 0.22263509035110474, -0.16188369691371918, 0.02970629371702671, -0.5344115495681763, -0.681969404220581, -0.33613884449005127, -0.2876656949520111, 0.16772140562534332, 0.3796880543231964, -0.5561352372169495, -0.6454399824142456, -0.33455631136894226, 0.14253537356853485, -0.15574146807193756, -0.0314876027405262, -0.30875006318092346, -0.032633546739816666, -0.6024825572967529, -0.1821507215499878, 0.7742420434951782, 0.5112953186035156, -0.26428335905075073, -0.14432188868522644, 0.07187598198652267, -0.04563015699386597, -0.1508311927318573, 0.39290982484817505, -0.027187533676624298, -0.055020902305841446, -0.4175659418106079, -0.8287928700447083, 0.2648700475692749, 0.2960072457790375, 0.050025779753923416, -0.013157366774976254, -0.22772100567817688, 0.21917690336704254, -0.18017961084842682, -0.4299003481864929, 0.3003983795642853, -0.0598752424120903, -0.15061219036579132, 0.12975367903709412, 0.9309864640235901, 0.28225091099739075, -0.20677173137664795, -0.4057368338108063, -1.0252079963684082, 0.08821213245391846, -0.26546594500541687, -0.2043641358613968, 0.20205196738243103, -0.03316299244761467, 0.33016982674598694, 0.21512332558631897, -0.26311972737312317, -0.3728255033493042, -0.22579778730869293, 0.40511953830718994, 0.2854258120059967, 0.049463462084531784, -0.161654993891716, -0.18086954951286316, 0.024326805025339127, 0.09822428226470947, 0.32512351870536804, 0.2690604329109192, 0.4528871476650238, 0.2538474500179291, 0.036614082753658295, -0.16408327221870422, 0.0578727088868618, 0.15395808219909668, 0.33657240867614746, 0.41563159227371216, 0.39981403946876526, 0.011430962942540646, -0.3284591734409332, 0.1219567358493805, 0.027216501533985138, 0.16467885673046112, -0.030469343066215515, 0.4299582839012146, -0.007576474454253912, -0.457577109336853, -0.24158453941345215, 0.032614000141620636, -0.11337737739086151, 0.09030480682849884, 0.35442355275154114, 0.0721348375082016, -0.243081733584404, 0.16685664653778076, -0.04023606330156326, -0.007778491824865341, 0.0701160654425621, 0.11637870967388153, 0.5940966606140137, -0.23101095855236053, 0.22649884223937988, 0.2455977201461792, 0.07763059437274933, 0.39379969239234924, -0.153924360871315, -0.1926073133945465, -0.20186662673950195, -0.32189634442329407, 0.20725637674331665, 0.14274100959300995, 0.22829140722751617, -0.23809288442134857, 0.09499809145927429, -0.02737024798989296, -0.15258079767227173, -0.13511811196804047, -0.22925586998462677, 0.1803211271762848, 0.04457377269864082, 0.4068307876586914, 0.474529892206192, 0.01964190974831581, -0.7848167419433594, -0.4650738835334778, 0.024910271167755127, -0.4254598021507263, 0.20477116107940674, 0.313344806432724, -0.033625878393650055, -0.4215043783187866, -0.5308693051338196, -0.6016935706138611, 0.1774970144033432, 0.17881186306476593, -0.4028030037879944, -0.7221371531486511, -0.1411561667919159, -0.09744522720575333, -0.26634135842323303, 0.04812822863459587, 0.2774377763271332, -0.4071871042251587, -0.8921687006950378, 0.2649829685688019, 0.6939077973365784, -0.13641098141670227, -0.2315145879983902, -0.1627950668334961, 0.4175057113170624, -0.1658421903848648, 0.14517945051193237, -0.21885466575622559, -0.0046938215382397175, 0.32743942737579346, 0.4239443242549896, 0.7561748623847961, 0.020629551261663437, 0.13563713431358337, -0.2976134717464447, -0.14742863178253174, 0.258818119764328, 0.5656691789627075, 0.757704496383667, -0.4769725799560547, -0.4084799885749817, -0.36122968792915344, -0.4275965094566345, 0.6255311965942383, 0.09751421213150024, 0.8454143404960632, -0.22001828253269196, -1.00137460231781, -0.420376718044281, -0.5461028814315796, 0.3186934292316437, -0.10814463347196579, 0.3906947076320648, -0.6531832218170166, -0.746974527835846, -0.6234558820724487, -0.21561259031295776, 0.08809603005647659, 0.07248836010694504, 0.42822277545928955, -0.43577146530151367, -0.437414288520813, -0.6500145792961121, -0.45417699217796326, -0.29869508743286133, 0.2709433138370514, 0.3546162247657776, -0.4127225875854492, -0.47732120752334595, -0.33279740810394287, -0.5589005947113037, -0.3381091356277466, 0.39312872290611267, 0.6679769158363342, -1.005112886428833, -0.1956304907798767, 0.3281863033771515, 0.32318902015686035, 0.5742300748825073, 0.3053325116634369, 0.10645315051078796, -0.21095208823680878, -0.10437507182359695, -0.026049558073282242, 0.062107961624860764, 0.0014522131532430649, -0.024558354169130325, 0.24194099009037018, -0.18732419610023499, -0.19995540380477905, 0.19127020239830017, -0.1725309044122696, 0.5221644639968872, 0.26516133546829224, -0.1788751780986786, -0.380951464176178, 0.0009473607060499489, -0.1422705352306366, 0.2437913715839386, 0.9942446947097778, 0.2881126403808594, -0.08722667396068573, -0.14008376002311707, -0.03535303473472595, -0.07254450023174286, -0.023104161024093628, 0.6199296116828918, -0.1340291053056717, 0.020707810297608376, -0.14700813591480255, -0.3193495273590088, -0.3347128927707672, -0.10967762023210526, 0.1484760195016861, 0.12307250499725342, -0.17609155178070068, 0.04744793102145195, -0.1820480078458786, 0.18323111534118652, 0.33050888776779175, 0.4409997761249542, 0.44607964158058167, -0.12563160061836243, -0.3251246213912964, -0.8098676800727844, 0.09535461664199829, 0.296834796667099, 0.10096117109060287, -0.34048622846603394, 0.05316237360239029, -0.2695770263671875, -0.5848255753517151, -0.20098772644996643, 0.33198174834251404, 0.22109588980674744, -0.4776501953601837, -0.16341325640678406, -0.12167319655418396, -0.28591567277908325, 0.29513421654701233, 0.12008130550384521, -0.3935944437980652, 0.0536869615316391, 0.05980183184146881, -0.40402430295944214, -0.11257056891918182, 0.38742658495903015, -0.23381680250167847, 0.23955802619457245, 0.9932061433792114, 0.17125585675239563, -0.24534864723682404, -0.07134507596492767, 0.42457303404808044, 0.26075732707977295, 0.6842562556266785, 0.700741708278656, -0.1107320487499237, 0.05937749147415161, 0.1893737018108368, 0.4201555550098419, 0.29948243498802185, 0.5226036310195923, 0.26447951793670654, 0.2914574444293976, 0.12263369560241699, 0.1020834818482399, -0.30853861570358276, -0.11497452110052109, 0.7892815470695496, 0.33775684237480164, 0.1947961002588272, 0.45824164152145386, -0.11192822456359863, 0.7435892820358276, 0.011061841621994972, -0.3761317729949951, -0.5979951024055481, -0.5462944507598877, -0.5978475213050842, -0.5074445605278015, -0.2661933898925781, -0.3946172595024109, -0.24428074061870575, 0.06359818577766418, -0.05887411907315254, -0.006334926001727581, -0.14582571387290955, -0.26195991039276123, 0.09383740276098251, 0.10647926479578018, 0.3603738844394684, 0.166362464427948, -0.0661052018404007, 0.34322085976600647, -0.009699582122266293, -0.23242057859897614, 0.29160475730895996, -0.37689009308815, -0.5535615682601929, -0.03344990685582161, 0.19308945536613464, 0.16091448068618774, -0.1243915930390358, 0.6041167378425598, 0.34317949414253235, -0.016601521521806717, 0.4900108277797699, 0.11835075914859772, 0.16948014497756958, 0.14361833035945892, 0.39673125743865967, 0.12409147620201111, -0.042100176215171814, 0.24563612043857574, 0.05328119918704033, 0.19547557830810547, -0.20771671831607819, 0.20398148894309998, -0.662869393825531, -0.7023904919624329, -0.2545349597930908, -0.10440784692764282, 0.09869205206632614, -0.5366007685661316, -0.01329618226736784, -0.04457766190171242, -0.2029615193605423, -0.33031386137008667, -0.5942690372467041, -0.10726168006658554, 0.26530465483665466, 0.21046744287014008, 0.1429278701543808, -0.35281673073768616, -0.23608902096748352, 0.03149019926786423, 0.4867388606071472, 0.5037761926651001, -0.4815309941768646, -0.12842118740081787, -0.11148439347743988, -0.024334697052836418, 0.5026552081108093, 0.42384377121925354, 0.4631807804107666, -0.4903471767902374, -0.6499450206756592, -0.22364258766174316, -0.20221543312072754, 0.8497539758682251, 0.8265758156776428, 0.06763029098510742, -0.7021253108978271, -0.1642788052558899, 0.27809828519821167, 0.10665953904390335, 1.3405216932296753, 0.10496080666780472, 0.18013304471969604, 0.07518694549798965, 0.20943881571292877, 0.3008998930454254, 0.5029101371765137, -0.0606139600276947, -0.1068154126405716, 0.19889849424362183, 0.1966915875673294, 0.40988484025001526, 0.44389069080352783, -0.5121734738349915, -0.2416525036096573, 0.16569994390010834, 0.13181905448436737, 0.7579089999198914, 0.03189435973763466, 0.3032103478908539, 0.18736231327056885, 0.13946451246738434, 0.3282727599143982, 0.7815606594085693, 0.7534413933753967, 0.2663414180278778, -0.04228360578417778, -0.6404575109481812, -0.08858676254749298, -0.04135949909687042, 0.26698604226112366, 0.6126137971878052, 0.3130209147930145, -0.29596859216690063, -0.16090811789035797, -0.6523904800415039, -0.0379718579351902, 0.1698104292154312, 0.39047861099243164, 0.25875431299209595, -0.49960482120513916, -0.911776602268219, -1.3386770486831665, -0.091078020632267, -0.14333297312259674, -0.5404012203216553, -0.5008422136306763, -0.47812268137931824, -1.294797420501709, -1.350947380065918, -0.18667320907115936, -0.6420770287513733, -0.132828950881958, 0.11870165169239044, -0.1393822431564331, -0.5138821005821228, -0.6302507519721985, -0.5676022171974182, -0.1563253551721573, 0.05806165188550949, 0.49484020471572876, 0.19816425442695618, 0.10876704752445221, 0.2757352888584137, 0.3774805963039398, 0.41388919949531555, 0.29196691513061523, 0.08763449639081955, -0.25285619497299194, 0.37172606587409973, 0.032742761075496674, 0.13775233924388885, 0.2973104417324066, -0.10846636444330215, 0.05659761279821396, -0.05214659124612808, -0.21358437836170197, 0.28796499967575073, 0.2376651018857956, -0.25117743015289307, -0.24187296628952026, 0.11324266344308853, -0.13538922369480133, -0.14951369166374207, -0.5482767820358276, -0.022816414013504982, 0.30244719982147217, -0.40599358081817627, -0.08484380692243576, 0.26484283804893494, -0.12009302526712418, -0.1710633635520935, 0.39319390058517456, -0.3223196566104889, 0.03777012974023819, 0.20524412393569946, -0.07025844603776932, -0.023562578484416008, -0.30642321705818176, -0.04604243114590645, -0.644114077091217, 0.3054201900959015, -0.10321158915758133, -0.1837775707244873, -0.10798130929470062, -0.06886275857686996, -0.07426487654447556, -0.14967650175094604, -0.42007333040237427, 0.2584901452064514, -0.12891361117362976, -0.11432385444641113, -0.13977481424808502, 0.0816778689622879, 0.07503692060709, -0.20678769052028656, -0.14106279611587524, 0.9881168603897095, -0.12837426364421844, -0.13982106745243073, 0.559891402721405, 0.6423141360282898, -0.0758783370256424, 0.12947684526443481, 0.20276010036468506, -0.33755239844322205, -0.03280508518218994, 0.30744510889053345, 0.14494404196739197, 0.14413678646087646, 0.011596400290727615, -0.37203270196914673, -0.20869863033294678, -0.0009490609518252313, -0.5534166693687439, -0.18445894122123718, 0.09270936250686646, -0.22932302951812744, -0.3005647361278534, -0.012577848508954048, -0.4550587236881256, 0.07592616230249405, 0.34970343112945557, -0.35869863629341125, -0.10895105451345444, -0.0017973656067624688, 0.19271966814994812, 0.032955627888441086, -0.0072728791274130344, -0.27783751487731934, -0.8996114730834961, -0.17633730173110962, 0.25421977043151855, 0.06809435784816742, 0.22451891005039215, -0.4352826774120331, -0.1984238624572754, -0.02813594415783882, -0.2141650766134262, 0.17261120676994324, 0.4868539273738861, 0.04596755653619766, -0.41810473799705505, -0.10541382431983948, -0.6273749470710754, -0.24286039173603058, -0.08446726202964783, 0.6353124380111694, -0.11017119139432907, -0.6127546429634094, -0.23495686054229736, 0.35582563281059265, -0.05232781171798706, 0.03148212656378746, 0.21279780566692352, -0.3976842164993286, 0.14958995580673218, -0.1171763613820076, -0.07262077927589417, -0.4347003102302551, -0.2511221766471863, -0.5300443172454834, -0.04827381297945976, -0.3541211485862732, 0.5583930611610413, 0.10663861036300659, -0.7466095089912415, -0.3354213237762451, -0.6075800061225891, -0.6043290495872498, -0.0017618659185245633, 0.5313688516616821, -0.23267117142677307, -0.4197466969490051, 0.5279198288917542, -0.11296425014734268, -0.16690149903297424, 0.009108111262321472, 0.3289821147918701, -0.0076868268661201, 0.2527947425842285, 0.10195689648389816, 0.16878272593021393, 0.28843367099761963, 0.12171846628189087, 0.45061343908309937, 0.5452461242675781, 0.04174772650003433, -0.004892215598374605, -0.04858171194791794, 0.05603170022368431, -0.027755891904234886, -0.6981334090232849, -0.2836664319038391, -0.035332825034856796, 0.4098990261554718, 0.1223500594496727, 0.4930324852466583, 0.4402952492237091, 0.6072293519973755, 0.0032612851355224848, -0.19215786457061768, 0.2749224901199341, 0.07743637263774872, 0.3205016553401947, 0.4878717064857483, -0.018671561032533646, 0.11047709733247757, -0.21316613256931305, 0.4365542232990265, -0.1472005993127823, 0.32872721552848816, 0.6916288733482361, 0.2869052588939667, 0.01027566846460104, -0.0823502168059349, 0.15584050118923187, 0.18857666850090027, 0.024318445473909378, 0.3005548119544983, -0.03641839325428009, -0.33778199553489685, -0.45658212900161743, -0.38534218072891235, -1.0004842281341553, -0.2876506745815277, 0.2599218785762787, -0.5102257132530212, -0.27904200553894043, 0.050301335752010345, -0.31212276220321655, -0.34396418929100037, -0.13452284038066864, 0.36156412959098816, -0.4337027370929718, -0.5442782044410706, -0.633224606513977, -0.30397728085517883, -0.35154274106025696, 0.21806158125400543, 0.2121046781539917, -0.5044138431549072, -0.01752079464495182, -0.45726725459098816, -0.0938427671790123, -0.41480857133865356, -0.03680489584803581, 0.9950716495513916, 0.08299415558576584, -0.1164948120713234, 0.2529478073120117, 0.22307078540325165, -0.2787422835826874, -0.40381181240081787, -0.13079197704792023, -0.2413923740386963, -0.03683725744485855, 0.7508602142333984, 0.03332550451159477, -0.6276021003723145, -0.3419197201728821, 0.016792459413409233, 0.09735015034675598, -0.05675790458917618, -0.48188862204551697, -0.4879313111305237, -0.22803287208080292, -0.3437565863132477, 0.21060819923877716, 0.369486540555954, -0.4415041506290436, -1.090715765953064, -0.1865166574716568, 0.1394965797662735, -0.0020989163313061, 0.5591101050376892, -0.16198021173477173, -0.9329720139503479, -0.5394548773765564, 0.11422744393348694, 0.024033570662140846, 0.4659789502620697, -0.08115040510892868, -0.49706268310546875, -0.27226248383522034, 0.21540869772434235, 0.1972367912530899, 0.4246225655078888, 0.09628576040267944, -0.15067428350448608, -0.12049815058708191, -0.16734099388122559, 0.26803380250930786, 0.2024192363023758, 0.17527812719345093, -0.038186341524124146, -0.1628623604774475, -0.7556456923484802, 0.2280305176973343, 0.16761080920696259, 0.13463787734508514, 0.11888428777456284, -0.22165845334529877, -0.6617472171783447, -0.7095414996147156, 0.41653677821159363, 0.5055872201919556, 0.03507426753640175, -0.09549658745527267, -0.15810774266719818, -0.39609503746032715, -0.7798395156860352, 0.8480673432350159, 0.44059789180755615, 0.3682452142238617, 0.07197991013526917, -0.0801420658826828, -0.569791853427887, -0.3198097348213196, 1.1195632219314575, 1.1830308437347412, 0.8754163384437561, 0.08046141266822815, -0.49146896600723267, -0.45331498980522156, -0.7602553963661194, 1.3931165933609009, 1.3885167837142944, 0.6940762996673584, 0.13382557034492493, -0.22885647416114807, -0.16502279043197632, -0.41974690556526184, 1.2323137521743774, 1.0042086839675903, 0.6394228339195251, 0.18741106986999512, 0.06737270206212997, -0.362841933965683, -0.7568496465682983, 0.35015159845352173, 0.5966002345085144, 0.05660077929496765, 0.007144130300730467, 0.3502879738807678, -0.3778567314147949, -0.7343719601631165, -0.30656325817108154, 0.40089908242225647, -0.39359670877456665, 0.2970840036869049, 0.24287725985050201, -0.46252530813217163, -0.27422067523002625, -0.5647808313369751, -0.14574027061462402, 0.22713381052017212, 0.4195685386657715, -0.09157679975032806, -0.06309062987565994, -0.43293821811676025, -0.41880002617836, 0.09595943242311478, 0.16863462328910828, 0.011792820878326893, 0.45703256130218506, -0.43119704723358154, -0.3367415964603424, -0.47129055857658386, 0.34583815932273865, 0.6397144198417664, 0.4433703124523163, 0.8071351051330566, 0.12118121236562729, 0.21770624816417694, -0.06701944768428802, 0.5951966643333435, 0.6042194366455078, 0.5321847200393677, 0.36728614568710327, 0.057573605328798294, -0.08601035177707672, -0.3631814420223236, 0.4736691415309906, 0.5571690201759338, 0.23952804505825043, 0.16443105041980743, 0.27944087982177734, 0.05649245157837868, -0.33493590354919434, 0.26337960362434387, 0.03290347754955292, 0.044534049928188324, 0.010586327873170376, -0.07336568832397461, -0.024261025711894035, -0.706660807132721, 1.317927360534668, 0.38034746050834656, -0.14559578895568848, -0.19802320003509521, 0.4470231831073761, -0.32585957646369934, -0.08622057735919952, 0.18166597187519073, 0.29725176095962524, -0.06967811286449432, 0.10739606618881226, -0.06883914023637772, -0.332616925239563, 0.4258461892604828, -0.003257091622799635, -0.11769796162843704, -0.004786244127899408, 0.2635769546031952, -0.4751449525356293, -0.8408300280570984, -0.026727108284831047, -0.12760545313358307, -0.17417186498641968, -0.4789419174194336, -0.2582066059112549, -0.4812317490577698, -0.5706672072410583, 0.4152586758136749, 0.0955338254570961, -0.2194441705942154, 0.14176027476787567, 0.004133798182010651, -0.37461942434310913, -0.04835914820432663, -0.08183133602142334, -0.024203598499298096, 0.24953500926494598, -0.23459435999393463, 0.13954070210456848, 0.4674183130264282, -0.5070099234580994, -0.06392478197813034, 0.024021396413445473, 0.738644540309906, 0.4725590944290161, -0.2372419387102127, -0.28368011116981506, -0.3361698389053345, -0.0557175949215889, 0.08402759581804276, 0.2432977706193924, 0.4259607195854187, 0.8656703233718872, 0.38947588205337524, -0.16639237105846405, 0.6672754287719727, 0.23539967834949493, 0.2032039761543274, 0.5461149215698242, 0.5448688268661499, 0.3746546804904938, 0.17045287787914276, 0.18039806187152863, 0.2435431331396103, -0.049773573875427246, 0.563704252243042, 0.31436794996261597, 0.2561572790145874, 0.02068963274359703, 0.36280494928359985, 0.0843227207660675, 0.1821187287569046, 0.541923463344574, -0.04360632970929146, -0.257077157497406, -0.4467896819114685, -0.4847433567047119, -0.8900915384292603, -0.648195743560791, 0.01942586526274681, -0.371660977602005, -0.23601773381233215, -0.19824481010437012, -0.5022894144058228, -0.17820963263511658, -0.4608614444732666, 0.15973253548145294, -0.1862732619047165, -0.6390345096588135, -0.778130829334259, -0.6032499074935913, -0.16389577090740204, -0.41939517855644226, 0.0012660548090934753, -0.290228933095932, -0.22928586602210999, -0.17828810214996338, -0.4943089485168457, -0.6359032988548279, -0.3344104290008545, -0.35465723276138306, -0.13801948726177216, 0.026249852031469345, -0.44176098704338074, -0.5113833546638489, -0.04698556289076805, -0.11840827763080597, 0.340421199798584, -0.10801973938941956, 0.009328056126832962, -0.1722121238708496, 0.4366565942764282, 0.5158835649490356, -0.0022326516918838024, 0.028868919238448143, 0.014113917015492916, 0.007822208106517792, 0.42307791113853455, 0.37256211042404175, 0.4747732877731323, 0.08671759068965912, 0.22048571705818176, 0.47832515835762024, 0.3123813271522522, -0.16965970396995544, -0.5980432629585266, 0.16150221228599548, -0.15255092084407806, -0.2272953987121582, 0.3085707724094391, 0.17496797442436218, -0.2484443336725235, -0.44334566593170166, 0.4812065660953522, 0.02151630073785782, 0.09919861704111099, 0.10503387451171875, 0.21060112118721008, 0.1255892813205719, -0.4356956481933594, -0.3500317633152008, 0.21007902920246124, -0.012988639064133167, -0.3678343594074249, -0.20266278088092804, 0.24486833810806274, 0.2748420536518097, 0.06813321262598038, 0.17790712416172028, 0.12043658643960953, 0.4757971167564392, 0.19549059867858887, -0.4140309691429138, -0.05545618385076523, 0.30247777700424194, -0.6937419176101685, -0.3256955146789551, -0.5208690166473389, -0.17750896513462067, 0.0461110882461071, 0.17045311629772186, 0.3750430941581726, 0.0008380425861105323, -0.031948234885931015, -0.7005752325057983, 0.01761193387210369, -0.4685281217098236, 0.6307352781295776, 0.2921242117881775, 0.35502204298973083, 0.1700313836336136, -0.44596999883651733, -0.39037901163101196, -0.5474014282226562, 0.603691816329956, 0.045955028384923935, 0.3505389988422394, 0.34213992953300476, -0.7561503052711487, -0.5097231864929199, 0.14660370349884033, 0.41927701234817505, 0.2996642589569092, 0.6881595849990845, -0.04918781667947769, -0.22646217048168182, -0.32741791009902954, -0.04104381799697876, 0.6991841197013855, 0.6034670472145081, 0.3447877764701843, 0.06101388484239578, -0.545028030872345, -0.11151856929063797, -0.39580151438713074, -0.2746032774448395, -0.152304545044899, -0.3129538893699646, -0.2507018744945526, -1.037684440612793, -0.6494378447532654, -0.20673306286334991, 0.37083208560943604, -0.0470551922917366, -0.18956786394119263, 0.19378943741321564, 0.25707146525382996, 0.29602205753326416, 0.08075989782810211, 0.36959412693977356, -0.41873201727867126, 0.17501872777938843, 0.82810378074646, 0.018879609182476997, 0.10914385318756104, -0.023044971749186516, -0.06981345266103745, 0.8573904037475586, 0.7659991979598999, 0.18792077898979187, -0.05808665230870247, -0.12224813550710678, -0.1904725581407547, 0.36821094155311584, 0.7181476950645447, 0.18990981578826904, -0.38332027196884155, -0.2089053839445114, -0.08158239722251892, 0.26881515979766846, 0.38914310932159424, -0.07283522933721542, -0.3231658339500427, -0.17569470405578613, -0.19154860079288483, 0.3682142496109009, -0.06689273566007614, 0.3932652473449707, -0.4387635588645935, -0.4974271357059479, -0.004789608530700207, 0.3075125515460968, 0.12308451533317566, -0.2849147915840149, -0.04839286208152771, -0.4096328914165497, -0.38847339153289795, -0.022981509566307068, 0.25157618522644043, 0.03887226805090904, 0.604672908782959, 0.6266608834266663, 0.6971540451049805, 0.4133928716182709, 0.3202895522117615, 0.43435773253440857, 0.6439493298530579, 0.3243539333343506, 0.6741094589233398, 0.6806596517562866, 0.01382252387702465, 0.5562119483947754, 0.15180076658725739, 0.03922882303595543, 0.28521835803985596, 0.9883383512496948, 0.6901618838310242, 0.5560795664787292, 0.1677369475364685, 0.8185042142868042, 0.59183269739151, 0.6785158514976501, 0.3791622817516327, -0.3900391757488251, -0.28685012459754944, -0.48306265473365784, -0.5620297789573669, -0.5820220708847046, -1.1395049095153809, 0.21112073957920074, -0.6271452307701111, -0.5047810673713684, -0.08011701703071594, -0.1410789042711258, -0.7417567372322083, -0.9453785419464111, -0.06466509401798248, -0.5442456007003784, -0.7323548197746277, -0.8044354319572449, -1.25198495388031, -0.7067015767097473, -0.38624295592308044, 0.10575272142887115, -0.677129328250885, -0.6546447277069092, -0.5317874550819397, -0.8541560173034668, -0.518314778804779, -0.32639390230178833, 1.4511041641235352, 0.268107146024704, 0.1538829356431961, 0.3219478726387024, 0.2612476646900177, -0.20606358349323273, 0.22111141681671143, 0.4095914363861084, -0.003899969393387437, 0.31472229957580566, 0.6598844528198242, -0.3101970851421356, -0.4060175120830536, 0.22918343544006348, -0.24221952259540558, 0.1234823688864708, 0.00742599181830883, -0.3144686222076416, -0.07997530698776245, -0.06515735387802124, -0.49641478061676025, -0.7098389267921448, -0.17783194780349731, -0.06274916976690292, -0.2249242663383484, -0.32544222474098206, -0.45920896530151367, 0.09066693484783173, -0.07927354425191879, -0.1560252159833908, 0.023285677656531334, 0.19796119630336761, -0.5128539800643921, -0.043561022728681564, 0.31689417362213135, -0.15603633224964142, -0.28670644760131836, 0.0751160979270935, -0.29120129346847534, -0.10759206861257553, 0.3593862056732178, 0.22609581053256989, -0.30088159441947937, 0.056721948087215424, -0.26335427165031433, -0.5836983323097229, -0.0916905552148819, -0.11394055932760239, -0.14845941960811615, 0.021434929221868515}