{-47, 147, 90, 6, -23, -91, -89, 105, 256, 99, 51, 37, -127, -29, 188, 222, 35, 237, -105, 7, -9, 196, 139, 193, 79, -34, -109, -28, -11, 35, 101, 27, -239, -75, -133, 64, 40, -7, 50, -94, -74, -92, 74, 165, 114, 51, -121, -133, -64, -3399, -104, -74, -70, 11, 188, 39, -97, -16, 64, 106, 105, -25, -142, -40, -25, 94, 58, 70, -164, -211, -8, 78, 68, -50, -101, -96, -102, 97, 101, -40, -75, -204, -132, 42, -36, -44, 93, 26, -15, 97, 49, 18, -144, -111, -1, -88, 80, -8, 66, 5642, 27, -64, -51, -116, -22, 53, 75, 68, 38, -141, 13, 26, 50, 118, 105, -93, -189, 93, -37, -23, 78, -71, -53, -93, 4, 46, -33, 77, -137, -34, -24, -4, -164, -109, -70, -1, 134, -19, 3, 49, 43, -145, -19, 110, -59, -68, 77, -50, -128, 8328, -58, 25, -67, -5, -38, -91, -113, -53, 2, 92, 166, 96, -15, -60, -221, -43, 125, 170, 143, -79, -115, -210, -206, -137, 7, -62, -52, -52, -30, -58, -40, 148, 138, -62, -127, -133, 81, 143, 166, 153, 68, -93, -134, -50, 14, -36, 51, 7, -31, 4648, 95, 4, -102, -9, 44, 103, 67, 50, -142, -75, -64, 40, 106, -2, 42, -108, 42, -168, -46, 89, -40, -87, -14, -230, -189, -196, 72, -95, 102, 115, -155, -94, 111, 63, -30, 3, 83, 112, -110, -9, 56, -72, 47, -24, -79, -193, -61, 58, 110, 9155, -6, -38, 60, 26, 90, -116, 36, 18, 3, 53, 51, -123, -46, 124, 129, 90, -276, 87, -117, -69, 14, 23, -32, -52, 21, 159, -132, 1, -127, -65, 79, -155, -179, -16, -10, 6, -26, -9, 31, 30, -83, -20, -23, 136, -28, 120, 27, -86, 3, 3044, 17, -134, -200, -251, -21, -50, 73, 17, -150, -155, 91, 110, 17, 70, -13, -171, 13, 31, 70, 32, -6, 25, -102, -138, 106, 138, 212, -4, -47, -94, -121, 57, 101, 36, -105, -58, 143, 38, -66, 20, 57, -62, -13, -73, -100, -191, -92, -12, -36, 7286, 14, 21, -142, -146, -77, -72, -87, -28, -89, -142, -119, 47, -22, -47, -90, 31, 59, -107, -32, 106, -76, -110, 58, -61, -121, -150, 48, -128, 150, 92, 47, -34, 46, 50, 68, 22, 62, 58, -95, -34, 114, -36, 66, 65, 115, -90, -17, 116, 24, 5076, -203, -147, -87, 1, -56, -143, -44, -83, -120, -60, -154, -192, -53, 105, 28, -38, -268, -147, -163, 80, 135, 16, -1, -153, -69, 131, 18, 96, -101, -29, 47, -26, 19, -24, 18, -49, -60, 105, 156, 63, -91, -4, 27, 170, 41, 175, 57, -15, 81, 4832, 121, 27, 67, 69, 69, 195, 225, 52, -22, 0, -109, -52, 120, 148, -83, -114, -95, -158, -25, 99, 79, -107, -46, -160, -190, -90, -91, -92, -16, -37, -155, -170, -13, 36, 73, 6, -191, -253, -156, -200, -133, 21, 159, 11, -16, -32, -61, 2, 160, 5981, -111, -44, 20, 141, -7, -104, 6, -20, -128, -82, -56, -92, -40, 138, -106, -52, -250, -79, -114, 116, 274, -83, -123, -46, -44, 101, 39, 231, -232, -159, -15, -62, -26, 83, 130, -130, -173, -146, 158, 58, 57, 131, -28, -92, -24, 50, 16, 85, 126, 6098, 131, 124, 138, 126, -26, -49, 1, 142, 16, -10, -121, -64, -37, 19, 42, 14, -129, -120, -36, 37, 113, -42, 110, 93, -96, 13, -30, -63, 8, -60, 88, 20, 127, -32, 73, -62, -96, -79, 93, 17, -12, 59, 38, -24, 99, 112, 56, 42, -141, -5752, -39, -112, -206, -109, -179, 29, -41, 4, 69, -116, -190, -55, 195, 24, 54, -16, -2, -149, -1, 73, -19, 11, -92, -25, 111, 5, -34, 14, -88, -11, 128, 331, 263, 3, -118, -29, 92, 191, 28, 77, 124, -33, 30, 74, 123, 51, 51, 161, 137, -6405, 16, -19, -41, 166, -13, 57, 148, 62, 7, 23, 53, -2, -19, 92, 20, -90, -246, -8, 0, -65, 74, 104, 68, -75, 2, 103, 11, 14, 24, -22, -94, -107, 34, 21, 35, 95, -99, -184, -20, -63, -70, 54, 195, 55, -38, 144, -7, -25, 40, -2177, 42, 83, 95, 132, 41, 36, 109, -41, 33, -47, 32, -152, -95, 41, 45, -52, -143, 94, -106, -95, 71, 116, 95, 68, 107, 178, -79, 160, -132, -24, -69, 15, -145, -34, 6, -41, -29, -51, 34, -29, 9, 142, 38, 12, 38, 92, -18, -100, -21, -1963, 61, 13, 1, 14, -131, -145, -105, 30, -66, -74, -144, -170, -147, -25, -33, 14, -198, -62, -74, 6, 177, -106, -59, -69, -98, -19, -25, 114, -11, -11, 83, -78, -2, 47, 52, 66, -73, -160, 97, 45, -10, 136, 87, 17, -10, 124, 52, 17, 137, 7231, -179, -24, -20, -6, 57, 75, 11, -110, -63, 18, 84, 92, 29, 24, -126, -21, 34, 112, 152, 277, 189, -135, -48, -22, 107, 312, 255, 264, -156, -115, 20, 276, 203, 244, 256, -98, -57, -11, 104, 61, 223, 19, -165, -69, 37, 21, 108, 173, 64, -6036, -59, -68, 62, -9, -12, -28, -126, -42, 2, -11, 86, 181, 41, -10, -60, 75, 146, -60, 34, 30, -44, 71, 28, 9, -13, -130, 151, -5, 192, 141, 14, 39, 65, -56, -47, -10, 127, 192, 20, 33, 27, -155, -14, -62, 36, 2, -79, 38, -102, -3647, -33, -22, 16, 6, 61, -124, -95, 45, 142, 75, 163, 90, 52, -97, 125, 153, 168, 94, 102, -33, -38, 130, 74, 51, 115, 39, 77, -27, 34, -29, -22, 93, 86, -2, -49, -127, 138, 51, 51, 90, 2, -48, -165, -117, -59, -38, 5, 15, -153, -7398, -87, -14, 101, 79, 216, 73, 14, -166, 17, -16, 95, 88, 21, 0, -18, 6, -27, 145, 79, -61, -32, 23, 28, 25, 208, 138, 68, 58, -168, -3, 43, 89, 85, -49, -88, -92, 91, 12, 107, 106, 41, -78, -111, -32, -30, 14, 41, -44, -86, -4372, -87, -50, -12, 52, 178, 20, 139, -2, 10, 49, 44, -80, -114, 113, 34, 73, -27, 106, -125, -239, -55, 43, -41, -73, -118, -124, -124, 0, -94, -33, -14, -138, -172, -113, -43, 24, 133, -1, 22, 53, 42, 17, -96, -18, -79, -32, 142, 84, 10, 10821, 152, 5, 12, 24, -29, -65, 17, 51, -6, 29, 15, -68, -60, -140, 124, -11, -22, 24, -33, -210, -247, 157, 135, 75, -27, -104, -318, -310, 136, 98, 21, -133, -160, -193, -137, 196, 154, -37, -66, -108, -106, -100, 220, 85, -16, 81, -91, -161, -51, 6866, 61, -32, 59, -64, -149, -103, 53, 21, -102, -22, -122, -143, -104, 80, -107, -105, -174, -40, -29, 35, 117, -93, -48, 20, 13, 86, -39, 57, -18, -8, 85, -26, 8, 3, 149, -70, -262, -224, -56, -47, 55, 176, 52, 63, -67, 152, 54, 169, 210, 3509, -26, -2, -22, -27, -120, -11, -28, 77, -20, 15, -118, 116, 48, -33, -23, -65, 115, -124, 145, 181, 25, -57, -29, -15, 23, -21, 63, -55, 103, 167, -11, 78, 154, -14, -53, -78, 41, 131, 19, -52, -13, -2, 28, 11, 63, 10, -34, 21, -24, -4149, -5, 3, 12, -61, -59, 3, -71, 14, -193, -176, -173, 9, 85, -72, -79, -157, 155, -217, 0, 14, -102, -119, -54, -85, -226, -160, -26, -75, 109, 69, -46, 2, 104, 34, 16, 151, 157, 49, 24, 10, 125, 18, 66, 70, 131, -70, 78, 35, 28, 4219, 53, 86, 32, -75, 33, -124, -90, 157, 99, 42, -36, -117, -25, -44, 71, 74, -113, 20, -107, -100, 82, 15, 30, 92, -82, 17, -182, -73, 11, -85, 106, -33, -48, 103, -2, 19, -66, -120, -37, -6, -50, 34, 42, -11, -66, 16, 83, 58, -64, 1517, 19, -6, -12, -229, -72, -21, -51, 44, 106, 1, -27, -18, -2, -52, 23, 24, 144, 3, -81, -49, -161, 64, 36, -57, -94, -229, 42, -160, 116, 165, 57, -5, -15, -28, -65, 6, 63, 90, 1, -22, 49, -45, -34, 54, 55, -214, -34, 54, 20, 5680, 66, 53, 102, 158, 42, -5, -34, 134, 12, -4, -105, -149, -43, -17, 134, 48, -47, -238, -13, 11, 173, -13, 133, 216, -1, -66, -6, -95, 35, 136, 110, 79, 19, 90, 4, 35, -117, -81, -43, 25, -6, 25, -59, -95, 26, 152, -7, 95, -116, -8548, 95, -114, -117, -9, -26, -46, 7, 23, -20, -63, -9, 41, -163, -36, -38, -17, 2, -9, -58, -117, -157, 31, 87, -31, -86, -158, -132, -77, 95, 122, -42, -161, -131, -177, -157, 136, 90, 72, -15, -90, -84, -108, 154, 114, 39, -24, -118, -36, 54, 5283, 247, 162, 62, 180, 37, 75, 165, 183, 104, 109, 64, -29, 96, -14, 141, -7, 59, -17, 69, 53, -76, 8, 151, -108, -152, -185, -82, -202, -28, 14, -144, -242, -60, -192, -240, 16, 28, -142, -113, -199, -237, -108, 59, 86, -152, -118, -190, -130, -124, 8331, 3, -78, -15, -133, -27, -2, 31, 14, 35, -30, 148, 62, -36, 72, -63, -41, 55, 129, -26, -109, -110, -91, -84, -157, -35, 61, 111, 102, -114, -97, -40, 50, -18, 30, -107, -80, 132, 0, 65, 109, -3, -114, -9, 25, -52, -84, 0, 7, -67, 4821, -231, -171, -64, -43, -1, -38, -100, -125, -88, 31, 55, 30, 56, -38, -59, -49, 39, 137, 98, 27, 22, -112, -78, 2, 138, 349, 97, 101, -50, -34, 142, 276, 246, 360, 235, -44, 17, 121, 37, 220, 177, 98, -121, -58, 0, 83, 198, 115, -1, -5404, 68, 125, 86, -37, -101, -31, -94, 100, 93, 62, -141, -179, -28, -35, 89, 102, -23, 4, 7, -29, -54, -11, 53, 67, -65, -33, -115, -140, 136, 20, 159, -61, -2, 53, -52, 52, -194, -98, -52, -22, -101, -80, 47, 71, 77, 27, -16, -16, -69, -315, -85, -93, -118, -64, -53, -120, -139, -124, -87, -3, -27, 22, -142, 34, -55, -20, -72, 147, 34, -72, 17, 68, -81, 144, 126, 162, -7, 233, 2, 14, 48, 196, 48, 117, 140, 7, 46, 168, 133, 132, 162, 138, -97, -53, -29, 84, 172, 4, 53, -5039, 4, -66, -72, -102, -38, -5, 43, 120, 68, -19, 102, 175, 167, 12, -32, 32, 101, 5, 19, 16, -82, -66, 1, -100, -102, -110, 139, -17, 8, 8, -62, 16, 74, -6, -132, -51, 118, 90, -108, -56, 3, -171, -59, -46, -29, -121, -100, -32, -67, 4923, -23, -43, 43, 45, -36, -42, -52, -6, -13, -26, 82, 102, 59, -19, -65, -70, 101, -81, 117, 146, 15, 15, -36, -17, 51, 63, 117, -11, 156, 40, 46, 79, 145, 23, -43, -27, 43, 128, -56, -23, -28, 15, 44, 19, -2, -43, -130, -67, -20, -8921, 29, -136, -162, -163, -108, 79, 116, -116, -10, -70, 75, 88, 40, 89, -195, -149, 85, 134, 80, 31, 20, -82, -226, -82, 133, 229, 121, -52, -79, -127, -75, 8, 135, -44, -40, -95, 115, -37, -9, 69, -55, -122, -91, 18, -62, -199, -112, -68, 53, 9625, -315, 51, 202, 117, 265, 61, 411, 213, 382, 282, 302, -119, -249, 7, -79, 202, -183, -221, -278, -160, 266, 375, 208, -101, 145, -83, 40, -186, 425, 370, 161, -278, -87, -197, 201, -206, 324, 334, 16, 147, 194, 276, 162, -126, 241, 107, -327, -369, -345, -185, 53, -142, -149, -170, 40, 150, 90, -16, 220, -445, -349, -9, 93, -59, 119, -95, -23, -291, 233, 73, -207, 89, 199, -75, 57, -590, 101, 126, 159, -202, -232, 297, -190, -160, 258, -101, 310, -13, -220, 11, 118, 197, 38, -218, -64, -9, 177, -53, 167, -201, -169, 206, -94, 28, -133, -95, -40, 109, 84, 97, -151, -167, -105, -152, -90, -179, -230, 35, 46, -279, -203, 211, -159, 269, 29, 103, 56, -97, -169, 107, 94, 2, -94, -146, -254, -138, 181, 151, 134, 63, 91, 160, -102, 204, -170, 34, 145, -54, 97, 30, -244, 162, }