{, -929, -266, -4, -50, 90, 59, -166, -151, 39, 83, -251, -226, 29, 282, -79, -58, -89, 22, 227, -93, 15, 130, 65, 228, -126, -246, -191, 161, -293, -37, -153, -161, 178, 132, 90, 91, 309, -99, 216, 17, 66, -335, 31, -188, 257, 82, 116, -119, -106, 166, -6, 140, -1, 230, -103, 204, 63, 34, 44, -95, -166, -249, 172, 197, -177, 72, 200, -19, 47, -38, 99, -147, -227, -131, -154, 119, 81, 151, 86, -336, 88, -510, -201, 55, -150, 89, 217, 140, -157, -403, -110, -192, -100, -63, -261, -98, -38, 230, 62, -27, -99, 77, 337, -129, 7, 73, 132, 201, -94, -136, 301, -60, -526, 176, 672, 408, -269, 492, -326, 463, 239, -235, 216, -188, 241, -48, -18, 357, -84, 132, -179, 196, 167, -209, -214, 217, -153, 289, 5, 273, 232, 76, 209, -344, -183, 246, 28, -14, 66, -227, 221, 266, 9771, 71, -143, -35, 106, -22, 134, 76, -86, -110, 49, 187, 42, 34, 89, -179, -133, 52, 84, -2, 20, -73, -170, -29, -26, -11, -8, 70, -116, -83, -42, -9, -206, -25, -36, -51, -40, 1, -67, 22, -49, -100, -2, 180, 126, -128, -133, -128, -6, 54, -6665, 39, 148, 233, 248, 178, 108, 36, 82, 127, 207, 246, 167, 130, 146, 57, 55, 158, 248, 92, 109, 173, -5, -56, 14, 183, 143, 55, -12, -58, 29, 17, 55, -8, -9, -118, -127, -23, -49, -83, -75, -90, -154, -101, -171, -170, -136, -82, -60, -95, 6379, 119, 147, 169, 38, -52, -34, -18, 193, 146, 32, 100, -10, -5, -11, 199, 180, 135, -51, -25, -67, -29, 124, -23, -73, -112, -45, -104, -159, -64, 7, -74, -174, -85, -165, -136, -65, -157, -167, -105, -447, -165, -126, 65, -79, -12, -70, -136, -112, 65, -5862, -169, -143, -152, -90, -25, 11, -104, -99, -49, -135, -79, -57, 0, 38, -57, -112, -51, -28, 32, 20, 118, -2, 24, 49, 94, 90, 187, 36, -12, 13, 157, 299, 264, 40, 70, 29, 60, 214, 232, 256, 159, 96, -35, 134, 247, 98, 257, 52, 73, 6147, -159, -127, -157, -271, -222, -73, -32, -185, -196, -238, -135, -60, -90, -93, -234, -172, -214, -156, 4, -40, -94, -96, -7, -13, -44, -24, -23, 92, -156, 34, 67, 14, 71, 77, 136, 11, 75, 31, 190, 190, 127, 206, 10, 88, 135, 260, 144, 198, 207, 3537, -52, -63, -19, -62, 50, -62, -49, 27, -97, 37, -101, -58, -156, -83, 114, 54, -54, -228, -143, -54, -65, 177, 128, -52, 48, -184, -99, 35, 102, -81, 44, 71, -195, -44, -66, 53, -39, -1, 102, 44, -38, -63, -54, 11, 96, 221, 111, -77, -18, -4412, -78, -9, 63, 187, 51, -15, 54, -144, -21, 90, 73, -101, 44, 34, -92, -15, 101, 75, 24, 30, 37, -54, -46, 31, 335, 270, 229, 227, -33, -1, 141, 136, -37, 26, 53, -62, -92, 92, 41, 124, 56, -76, -191, -151, -164, -67, -22, -66, -107, 6544, 68, 34, 9, -129, 75, -59, 17, 35, -60, -12, -67, -10, -89, -14, 136, 26, -6, -70, -9, -127, -17, 159, 43, -77, -18, -158, -157, -75, 161, 8, -62, 7, -152, -71, -35, -28, -16, -50, -9, -92, 11, -39, 105, -88, 13, 116, 5, -34, 17, -4710, 109, 0, -56, -86, -118, -121, -20, 120, 81, -86, -95, -68, 33, -32, -6, 58, 72, 10, -36, 9, -95, -42, -41, 43, 214, 57, -52, -70, -68, 23, 176, 112, 140, -96, 34, 25, 126, 125, -6, 106, 107, 3, 36, 135, 33, -141, 74, 169, 136, 4764, 37, -149, 2, 91, -76, 66, 28, 21, -8, -105, -38, -65, -68, -100, -46, -81, 3, -95, -165, -13, -177, -38, -16, 68, 24, 15, 109, -69, -150, -47, 118, 64, 99, 54, -49, -38, -76, 74, 168, 36, 12, -41, -1, 66, -130, -16, 4, 70, -41, 1560, 60, 6, 99, 92, -16, -26, -23, -89, 37, 140, -16, -140, -79, -58, 7, 20, -13, 61, -120, -183, -152, -48, 13, -18, 92, -17, 81, 56, -32, -82, -23, -28, -104, 168, -9, -52, -19, -55, 3, 104, -31, 52, 32, -84, -98, -76, 93, 13, -39, -4797, 119, 212, 141, 10, 25, -76, -20, 103, 62, -20, 56, -4, 47, 94, 70, -45, -144, -127, 8, 102, 96, 74, -122, -132, -82, -44, -117, 7, 71, -74, -50, -11, 65, -25, 68, -20, -20, -106, -1, 95, 93, 28, 49, 85, 65, 153, 60, 24, -84, 6304, -45, -40, -267, -425, -290, -198, -128, -99, -181, -191, -208, -42, -173, -66, -127, -148, -170, -125, -70, -172, 21, 10, -50, -39, -49, 0, -143, -152, 27, 21, 96, 18, 77, 24, 110, 91, 128, 15, 54, 145, 82, 142, 180, 191, 155, 190, 261, 189, 278, -7154, 81, 66, -35, 23, 76, -11, 57, 56, -108, 10, 97, -52, 4, 34, 31, -25, -14, -5, 60, 14, -1, -29, 42, 168, 224, 148, -9, 32, -36, -40, -77, 53, -49, -89, -92, -45, -25, -18, -6, -84, -75, -37, 39, -70, 73, 140, 50, 10, -1, -81, -81, 104, 57, -41, 8, -136, -174, -86, -73, 43, 97, -142, -165, -85, 36, -40, -8, -79, -8, -154, -46, 197, 130, -67, -37, 18, -12, -38, 100, -7, -14, -106, -211, 68, 75, 13, -3, -58, 56, -46, -110, 77, -15, -38, 33, 237, 72, -53, -103, -8399, 22, -68, -52, 52, -8, 84, 55, -67, -95, -58, 103, 73, 13, -41, -46, 6, 25, 83, 69, 115, 65, 9, -42, 15, 39, 86, 106, 102, 3, -84, 31, 7, 42, -8, 110, -2, -117, -62, 8, -29, 23, 90, 18, -62, 43, -10, -2, 18, 30, 4867, -59, 58, 63, 20, 100, -39, -49, -51, -82, 53, 36, 58, -61, 24, -7, -39, -34, -58, 46, 11, 104, 121, 5, -200, -119, 6, -108, 52, 80, -9, -107, -135, -153, 45, 46, -103, -184, -36, -25, -68, 12, 71, -104, -228, 68, 177, -35, -59, -42, 3420, -42, 37, -56, -1, 83, 108, 193, 5, 35, -76, -38, 66, 144, 193, -122, -104, -92, -109, 160, 25, 216, -56, -255, -107, -139, 81, -28, 100, -167, -190, -159, -55, 22, 18, 109, -111, -112, -166, -116, -76, 69, 90, -105, -122, -85, -143, -86, 100, 170, -8234, -50, 84, 82, 146, 78, 27, -54, -27, -7, 16, 0, -6, 62, -48, -51, 49, -44, 133, 68, -46, -97, 0, -36, 62, 254, 73, -22, -36, -9, -18, -6, 158, -34, 5, -37, -81, -85, -28, 38, 31, -45, 12, -46, 47, 84, 112, 114, -32, -83, -6634, 24, 76, 26, -87, 14, -69, -149, -51, 85, 56, -122, -42, -31, -73, 75, 31, -100, 14, 15, -103, -29, 99, -60, 61, 253, 44, -63, -18, 108, 66, 174, 179, -28, 15, 48, 107, 76, 133, 67, 74, 31, 26, -79, -29, 201, 86, 50, 117, -29, 6091, 3, -96, -152, -139, -152, -129, -68, -101, -62, 16, -15, -2, -37, -67, 24, 27, 92, 42, -17, 88, -2, -59, 74, -96, -141, -9, 49, 41, -32, 154, 88, -4, 125, 30, 43, 37, 101, 32, -11, 63, 14, 50, -53, 52, -169, -179, -65, -27, 25, -4396, -3, -11, -52, -84, -152, -27, 68, 54, 36, -90, -60, 8, 124, 128, -123, -33, -28, -6, 128, 108, 118, -125, -166, -57, -52, 217, 211, 17, -179, -42, 71, 27, 342, 27, 46, 19, 53, 77, 128, -15, -27, 51, 50, 105, 113, -131, -62, 42, 34, 6209, 8, 77, 48, 36, 84, 199, 192, 68, -11, -163, -23, -11, 68, 156, 80, -75, -41, -166, -10, 43, 100, 66, -127, -233, -341, -23, -37, -138, -128, -122, -330, -344, -48, -164, -34, 30, -36, -131, -161, -145, -40, 15, 126, 51, 28, 70, 96, 106, 74, 718, -64, 95, 8, 35, 76, -28, 14, -13, -54, 73, 61, -64, -62, 29, -35, -38, -140, -6, 77, -104, -22, 68, -31, -44, 100, -82, 10, 52, -18, -6, -78, -12, -164, 78, -26, -47, -28, -18, -19, -38, -107, 66, -33, -29, -36, 21, 19, -53, -36, 8095, -33, -36, 143, 164, -19, 33, 52, -86, -8, 78, 37, 37, 3, -95, -53, 0, -141, -47, 24, -58, -77, -3, -116, 19, 89, -91, -28, 0, 49, 8, -2, -71, -229, -45, 65, 17, 57, -111, -51, -7, -55, 44, 124, 12, -107, -27, -160, -62, -22, 5204, -28, -156, -60, 91, -13, 8, 54, -101, 38, -30, -19, -111, -64, -135, -12, -90, 142, 27, -190, -86, -155, -154, 0, 135, -59, -107, 135, -29, -43, 2, 84, -2, 64, 26, 43, 74, 31, 115, 139, 11, -1, -12, 14, -7, -178, -72, -9, 105, 31, 4039, 112, 155, 1, -49, 70, 20, 82, 124, -5, 28, -54, 111, -38, 84, 176, 73, 3, -21, 40, 48, 6, 77, -9, -86, -116, -98, -255, -73, 66, -130, -71, 13, -80, -88, -34, 92, -111, -139, -161, -78, -90, 56, 54, -129, -4, -117, -24, -106, -9, 8152, 21, -30, 65, 57, -71, -103, -33, -62, -9, 191, 8, -160, -87, 4, 25, -14, -123, -124, -58, -88, 54, 94, -113, -278, -48, 36, -1, 143, -41, -238, -138, 29, 6, 119, -21, -127, -69, 55, 50, 108, 25, -38, -31, -43, 68, 52, 45, -10, -42, -6190, 58, 43, 34, 30, -57, -169, -181, 106, 129, 9, -24, -40, -101, -199, 216, 112, 94, 18, -20, -145, -82, 285, 302, 223, 21, -125, -116, -194, 355, 354, 177, 34, -58, -42, -107, 314, 256, 163, 48, 17, -93, -193, 89, 152, 14, 2, 89, -96, -187, -2511, 102, -100, 76, 62, -118, -70, -144, -37, 58, 107, -23, -16, -110, -107, 24, 43, 3, 117, -110, -86, -120, 88, 163, 113, 206, 31, 56, -17, 152, 154, 136, 94, 15, -22, -93, 121, 142, 61, 42, 71, 14, -85, 67, 8, 11, 3, -19, -6, -180, 10796, 97, -37, -50, 114, -83, -22, 46, 76, -18, 27, -18, -85, 109, -1, -30, -1, 67, -121, -214, -7, -33, -44, -122, -66, -123, -146, 106, 24, -56, 36, 1, -96, -12, -21, -6, 64, -60, 36, 119, -129, -16, 6, 188, 121, -60, -72, -86, -14, 21, 1993, 109, 221, 99, -42, 170, 60, 52, 139, 139, 96, 43, 46, 62, -13, 144, 80, 65, 5, 93, 22, 46, 138, -11, -66, -114, -124, -227, -165, 5, -95, -60, -51, -128, -45, -118, 41, -47, -163, -198, -154, -42, -107, 0, -74, -58, -45, -126, -162, -85, -2905, -35, 7, -113, -130, -12, -30, 87, -28, 2, -44, 111, 132, -1, 7, 4, 2, 108, 95, 121, 22, 56, 122, 80, -43, -153, 41, -39, -58, 79, 45, -63, -113, 123, 5, 25, 27, 54, 32, -111, -89, 54, -3, -94, -52, 62, 70, 17, 45, 31, 3898, 50, -106, -14, 77, -177, -83, -133, -45, 12, 43, 96, 0, -8, -179, 4, -119, 161, 74, 91, 43, -114, -100, -140, 154, 12, 89, 87, -193, -130, 37, 107, 76, 175, -13, -58, -83, -10, 178, 154, 88, 16, -139, -28, -101, -70, -39, -80, -64, -265, -5320, -53, 95, -12, -48, 49, 66, 75, 21, 94, -107, 45, 211, 5, 28, -6, -18, 219, 195, 48, -15, -31, -49, 94, 183, 48, -98, -53, -21, 69, 99, -19, -82, -45, -49, 94, -17, 100, -112, -127, -1, 78, 31, -73, -12, -104, -99, -6, 64, 10, 4953, 160, 178, 105, 82, 111, 164, 83, 172, 174, 4, 142, 39, 10, 73, 252, 176, 142, 43, 209, 151, 173, 97, -99, -73, -123, -143, -148, -291, 54, -160, -129, -20, -36, -189, -241, -16, -139, -187, -205, -319, -180, -98, 27, -173, -167, -136, -218, -132, -83, 11887, 68, 39, 82, 67, -53, 56, 104, -1, 80, 168, -79, -104, 58, -62, 31, 2, -80, -20, -17, -127, -181, -45, -16, -57, -83, -117, 23, -20, -40, 6, 50, -131, -11, 81, -40, -73, 19, -74, -27, 92, 58, -77, 14, -67, -149, -23, -29, -38, 5}