{-0.18492713570594788, 0.5783523917198181, 0.3527493476867676, 0.02313360944390297, -0.08844668418169022, -0.35493913292884827, -0.35006600618362427, 0.40996408462524414, 1.0029133558273315, 0.3896048069000244, 0.2019578069448471, 0.14377617835998535, -0.49724310636520386, -0.11552222073078156, 0.7365381121635437, 0.8696706891059875, 0.13779199123382568, 0.9298436045646667, -0.411022424697876, 0.02892110124230385, -0.033510126173496246, 0.7677717208862305, 0.5440008044242859, 0.755786657333374, 0.30989280343055725, -0.13234126567840576, -0.42856764793395996, -0.1081424430012703, -0.043924953788518906, 0.1375332921743393, 0.39525362849235535, 0.10402143001556396, -0.9372822642326355, -0.29448890686035156, -0.521901547908783, 0.2518503963947296, 0.15529851615428925, -0.027060596272349358, 0.19421108067035675, -0.3667159378528595, -0.2887301743030548, -0.3588758111000061, 0.2919662892818451, 0.6470701694488525, 0.4461817443370819, 0.199600949883461, -0.4759693145751953, -0.5209612846374512, -0.25239282846450806, -0.41493934392929077, -0.4078080654144287, -0.29212409257888794, -0.273408979177475, 0.04163678362965584, 0.7392007112503052, 0.15302351117134094, -0.3785064220428467, -0.06411127746105194, 0.2490374743938446, 0.4151708781719208, 0.4106849431991577, -0.09632919728755951, -0.5576338171958923, -0.15598449110984802, -0.09736423194408417, 0.36919957399368286, 0.2275044471025467, 0.27272459864616394, -0.6434707641601562, -0.8265733122825623, -0.02996796928346157, 0.30628371238708496, 0.2647664546966553, -0.19469130039215088, -0.3976500332355499, -0.3761455714702606, -0.40110382437705994, 0.37899598479270935, 0.3974429965019226, -0.15713748335838318, -0.2939346432685852, -0.7985119819641113, -0.5168741941452026, 0.16520139575004578, -0.1406330019235611, -0.17116327583789825, 0.3651319146156311, 0.10215993970632553, -0.05855230242013931, 0.3784727156162262, 0.19346606731414795, 0.07156779617071152, -0.5637282729148865, -0.43353450298309326, -0.003954724408686161, -0.34609371423721313, 0.3122231662273407, -0.03147087246179581, 0.2585303783416748, 0.6886714696884155, 0.10571593791246414, -0.2508416473865509, -0.19823098182678223, -0.4549485743045807, -0.08731057494878769, 0.20825572311878204, 0.29509034752845764, 0.2660330533981323, 0.14950136840343475, -0.5537548065185547, 0.05248787999153137, 0.10132931172847748, 0.19590678811073303, 0.4625639021396637, 0.41099855303764343, -0.3647449016571045, -0.7399017810821533, 0.3664965033531189, -0.1436615139245987, -0.09094516932964325, 0.3061133325099945, -0.27727779746055603, -0.20864109694957733, -0.36494287848472595, 0.013911467976868153, 0.1814732700586319, -0.12760603427886963, 0.30387839674949646, -0.5388283729553223, -0.1341296285390854, -0.09424132108688354, -0.017582040280103683, -0.6413137316703796, -0.4276701807975769, -0.27484819293022156, -0.003345609875395894, 0.5251346230506897, -0.07605300843715668, 0.010544758290052414, 0.19132442772388458, 0.1672682911157608, -0.5687531232833862, -0.07451172173023224, 0.4315946400165558, -0.2298775613307953, -0.26549747586250305, 0.3003329634666443, -0.19416247308254242, -0.503329336643219, 1.016563057899475, -0.22730937600135803, 0.09965385496616364, -0.2627767324447632, -0.020445123314857483, -0.15066595375537872, -0.35628220438957214, -0.44137394428253174, -0.20647171139717102, 0.005989454686641693, 0.3595801591873169, 0.6501732468605042, 0.3762374818325043, -0.06008864939212799, -0.23353642225265503, -0.8657781481742859, -0.16876792907714844, 0.49132776260375977, 0.6660327315330505, 0.5621983408927917, -0.31008225679397583, -0.45218774676322937, -0.8248756527900696, -0.807925283908844, -0.5381022691726685, 0.028779413551092148, -0.24374191462993622, -0.20197010040283203, -0.20360806584358215, -0.11589057743549347, -0.22728212177753448, -0.15555107593536377, 0.5791470408439636, 0.5393933653831482, -0.2419022172689438, -0.4998873472213745, -0.522835373878479, 0.3160099387168884, 0.5618550181388855, 0.6496269702911377, 0.5981701016426086, 0.26632946729660034, -0.36441656947135925, -0.5253549814224243, -0.19501309096813202, 0.05600786954164505, -0.14109253883361816, 0.19962620735168457, 0.02924715355038643, -0.12193123996257782, 0.5673949122428894, 0.371289998292923, 0.014320515096187592, -0.400972455739975, -0.03539527580142021, 0.17246083915233612, 0.40277525782585144, 0.26122644543647766, 0.19424447417259216, -0.5550843477249146, -0.2950645089149475, -0.24989129602909088, 0.15716135501861572, 0.4170015752315521, -0.009297273121774197, 0.165143683552742, -0.42487451434135437, 0.16522608697414398, -0.6584097743034363, -0.17846091091632843, 0.3490094542503357, -0.15749868750572205, -0.34208428859710693, -0.05428779497742653, -0.901127815246582, -0.7425667643547058, -0.768915057182312, 0.2842617332935333, -0.3723630905151367, 0.4006958603858948, 0.4512495696544647, -0.6095447540283203, -0.36798763275146484, 0.43601807951927185, 0.24888701736927032, -0.11848627030849457, 0.01124825794249773, 0.3239450752735138, 0.43860670924186707, -0.43103837966918945, -0.03491253778338432, 0.21811190247535706, -0.2805299460887909, 0.1844140589237213, -0.09304440766572952, -0.3110424280166626, -0.758819043636322, -0.2385045886039734, 0.22778695821762085, 0.43288251757621765, 1.1175705194473267, -0.02415923774242401, -0.14963962137699127, 0.23634947836399078, 0.1037464514374733, 0.35205185413360596, -0.4540306329727173, 0.13982129096984863, 0.0724560022354126, 0.011181601323187351, 0.20827829837799072, 0.20146578550338745, -0.4812793731689453, -0.17961055040359497, 0.4866616725921631, 0.506007730960846, 0.35463953018188477, -1.0826177597045898, 0.3427884578704834, -0.4602077901363373, -0.27000898122787476, 0.05384712666273117, 0.09029585123062134, -0.12596556544303894, -0.20569263398647308, 0.08187705278396606, 0.6218322515487671, -0.5186688899993896, 0.005148946773260832, -0.4973335266113281, -0.2558770477771759, 0.30851438641548157, -0.6083311438560486, -0.7031553387641907, -0.0644659474492073, -0.03810596093535423, 0.02339993417263031, -0.10258284956216812, -0.03428724408149719, 0.12123628705739975, 0.11756161600351334, -0.32603374123573303, -0.07672768831253052, -0.09194589406251907, 0.5337318778038025, -0.11080076545476913, 0.4706217646598816, 0.10417170077562332, -0.3387066423892975, 0.010899174958467484, 0.3715534210205078, 0.06536349654197693, -0.5245640277862549, -0.7845483422279358, -0.9823557138442993, -0.08189895004034042, -0.1958230435848236, 0.28686749935150146, 0.06582622230052948, -0.5873375535011292, -0.6081847548484802, 0.3549765646457672, 0.4322148263454437, 0.06860868632793427, 0.27338021993637085, -0.05180859938263893, -0.6699562072753906, 0.05127643048763275, 0.1208166852593422, 0.2739546000957489, 0.12692508101463318, -0.0253776703029871, 0.09785202145576477, -0.40085360407829285, -0.5397188067436218, 0.41710805892944336, 0.5406252145767212, 0.832274854183197, -0.014851641841232777, -0.18540091812610626, -0.36694788932800293, -0.474649578332901, 0.22339823842048645, 0.39758363366127014, 0.14220820367336273, -0.4134487211704254, -0.22702674567699432, 0.55979984998703, 0.14882883429527283, -0.258867472410202, 0.07886463403701782, 0.2227831780910492, -0.2430148869752884, -0.05252796411514282, -0.2879832088947296, -0.3906637132167816, -0.7505086660385132, -0.35983720421791077, -0.04666152969002724, -0.1408332735300064, 0.889354944229126, 0.05312533676624298, 0.08220040053129196, -0.5576902627944946, -0.5709054470062256, -0.30123013257980347, -0.2809579074382782, -0.34113866090774536, -0.11063370853662491, -0.34782323241233826, -0.5571199655532837, -0.4683547019958496, 0.18607813119888306, -0.08464415371417999, -0.18623347580432892, -0.3516699969768524, 0.12112189829349518, 0.2330779731273651, -0.42149776220321655, -0.12429159134626389, 0.41745537519454956, -0.29692742228507996, -0.43233010172843933, 0.22593070566654205, -0.24059700965881348, -0.4736001193523407, -0.5875548720359802, 0.1863807737827301, -0.5023892521858215, 0.5891001224517822, 0.36220064759254456, 0.18459567427635193, -0.13375139236450195, 0.18207792937755585, 0.19549433887004852, 0.2657555043697357, 0.08772877603769302, 0.24296490848064423, 0.22651375830173492, -0.3724948465824127, -0.13177064061164856, 0.44733545184135437, -0.1404801309108734, 0.25701767206192017, 0.2562314569950104, 0.45180124044418335, -0.3530109226703644, -0.06601931154727936, 0.4568006098270416, 0.09378612786531448, 0.6196047067642212, -0.796195387840271, -0.5747777223587036, -0.34272897243499756, 0.002308789873495698, -0.21847189962863922, -0.5593090653419495, -0.1716703474521637, -0.32627931237220764, -0.4706155061721802, -0.23554210364818573, -0.6027747392654419, -0.7545397281646729, -0.2077406793832779, 0.4114547073841095, 0.1088281124830246, -0.14802797138690948, -1.0507832765579224, -0.5762031078338623, -0.6397607326507568, 0.3128679096698761, 0.5297790169715881, 0.0642981082201004, -0.004817289765924215, -0.5995084047317505, -0.26959893107414246, 0.5137328505516052, 0.0717875063419342, 0.3773036003112793, -0.3955162465572357, -0.113399937748909, 0.1840721219778061, -0.10300148278474808, 0.07584764808416367, -0.09562563896179199, 0.07092277705669403, -0.19379183650016785, -0.23601116240024567, 0.4110541045665741, 0.6127415299415588, 0.24762007594108582, -0.357307106256485, -0.014897334389388561, 0.10567344725131989, 0.6684613227844238, 0.15974070131778717, 0.6863511204719543, 0.22453732788562775, -0.058043234050273895, 0.3164066672325134, 0.589823842048645, 0.4758439362049103, 0.10747374594211578, 0.2611231803894043, 0.2709762752056122, 0.2691818177700043, 0.7661499977111816, 0.8805875778198242, 0.20584087073802948, -0.08751091361045837, -0.0004646450688596815, -0.42603546380996704, -0.20259957015514374, 0.4717560410499573, 0.5822253227233887, -0.3256368041038513, -0.4462059438228607, -0.37434887886047363, -0.621283769607544, -0.09607919305562973, 0.38904038071632385, 0.31153735518455505, -0.4213532507419586, -0.17906217277050018, -0.626327395439148, -0.7444005012512207, -0.3520562946796417, -0.356765478849411, -0.35979241132736206, -0.061590299010276794, -0.1449757218360901, -0.6086922287940979, -0.6681609749794006, -0.04994108900427818, 0.14225101470947266, 0.2852402329444885, 0.022185444831848145, -0.7492143511772156, -0.9929216504096985, -0.6111949682235718, -0.7830974459648132, -0.5217970013618469, 0.08418994396924973, 0.6234155893325806, 0.04241681471467018, -0.0633462443947792, -0.12632876634597778, -0.2381158024072647, 0.007862240076065063, 0.6281933784484863, 0.730134904384613, -0.4340120553970337, -0.17416809499263763, 0.07863669842481613, 0.5510004758834839, -0.025858961045742035, -0.4082498252391815, 0.024581633508205414, -0.0800599604845047, -0.5016710758209229, -0.3212531805038452, -0.2193605899810791, -0.36043280363082886, -0.15707385540008545, 0.539726972579956, -0.41641563177108765, -0.2033708542585373, -0.9795411229133606, -0.3098314702510834, -0.4488605558872223, 0.45315003395080566, 1.0726398229599, -0.32462504506111145, -0.48053374886512756, -0.180921271443367, -0.17245087027549744, 0.396452933549881, 0.15224699676036835, 0.905428409576416, -0.9088153839111328, -0.6223992109298706, -0.05807604640722275, -0.24317951500415802, -0.100405752658844, 0.325985312461853, 0.508650004863739, -0.5080057978630066, -0.6800886392593384, -0.5741518139839172, 0.6201668381690979, 0.22592538595199585, 0.22416384518146515, 0.5126261115074158, -0.108607217669487, -0.3608783781528473, -0.0934363380074501, 0.1945793479681015, 0.06169764697551727, 0.33453428745269775, 0.493521124124527, 0.7443714737892151, 0.5121634006500244, 0.4876721501350403, 0.5402163863182068, 0.4947127401828766, -0.10298153012990952, -0.1937640905380249, 0.004613847937434912, 0.5582352876663208, 0.061005473136901855, -0.03778225556015968, -0.4745525121688843, -0.2515515983104706, -0.1459590196609497, 0.07514188438653946, 0.1656070351600647, 0.05437701195478439, -0.5055539011955261, -0.4706863760948181, -0.14166617393493652, 0.14501230418682098, 0.44163990020751953, -0.16470544040203094, 0.43257227540016174, 0.3645797371864319, -0.3762170970439911, 0.05288790538907051, -0.11912345886230469, -0.24532364308834076, 0.03094908781349659, -0.23554329574108124, 0.3468887507915497, 0.0797620639204979, 0.49842146039009094, -0.12714768946170807, 0.2858666181564331, -0.242686927318573, -0.3757777512073517, -0.3114716112613678, 0.3639170527458191, 0.06820888817310333, -0.04877573251724243, 0.2327808141708374, 0.149347722530365, -0.09509259462356567, 0.388702929019928, 0.44077974557876587, 0.21881788969039917, 0.1644432097673416, -0.5542041063308716, -0.7022045850753784, -0.15448321402072906, -0.4389839768409729, -0.8078911900520325, -0.4267697036266327, -0.703650712966919, 0.11390506476163864, -0.16110965609550476, 0.01691899076104164, 0.272134393453598, -0.4549996256828308, -0.7459855079650879, -0.21436774730682373, 0.7653059363365173, 0.0950758084654808, 0.21200470626354218, -0.06418292224407196, -0.008929598145186901, -0.58463054895401, -0.0031272228807210922, 0.286077618598938, -0.0747905746102333, 0.04183989763259888, -0.3598223626613617, -0.0977197140455246, 0.436756432056427, 0.01942886784672737, -0.13413117825984955, 0.05680336430668831, -0.34500205516815186, -0.04201732948422432, 0.5008922219276428, 1.2975115776062012, 1.0332366228103638, 0.012400571256875992, -0.46272069215774536, -0.11481071263551712, 0.35899996757507324, 0.7471447587013245, 0.11132532358169556, 0.3033786416053772, 0.487760990858078, -0.1304372102022171, 0.11868598312139511, 0.288377970457077, 0.4810221493244171, 0.2018754929304123, 0.20126113295555115, 0.631472647190094, 0.5365866422653198, -0.7818571925163269, 0.06441542506217957, -0.07255124300718307, -0.15951348841190338, 0.6512767672538757, -0.0510341078042984, 0.22381004691123962, 0.5790491700172424, 0.2427242249250412, 0.02591777965426445, 0.09054957330226898, 0.2086469531059265, -0.0068878489546477795, -0.07573311030864716, 0.3605157136917114, 0.07917444407939911, -0.35488760471343994, -0.9651003479957581, -0.029567068442702293, 0.001834160415455699, -0.2568454444408417, 0.290843665599823, 0.4072500765323639, 0.2649366855621338, -0.29484525322914124, 0.008529840968549252, 0.4052422344684601, 0.04147782549262047, 0.05472760275006294, 0.09523414075374603, -0.0874248594045639, -0.3688938617706299, -0.41853487491607666, 0.13190539181232452, 0.0805508941411972, 0.1365443915128708, 0.37179940938949585, -0.3874647617340088, -0.7220620512962341, -0.07893864810466766, -0.2485005408525467, -0.2751392126083374, 0.21041761338710785, 0.7646414637565613, 0.2150433212518692, -0.14983141422271729, 0.5640403032302856, -0.02649349346756935, -0.09618376195430756, 0.15873083472251892, -0.2657325267791748, 0.16537828743457794, 0.3237625062465668, 0.3718300759792328, 0.519496738910675, 0.1613522320985794, 0.14292201399803162, 0.42635390162467957, -0.1605604887008667, 0.12900526821613312, -0.1849963217973709, 0.12732768058776855, -0.5965704917907715, -0.3725121021270752, 0.1609037220478058, 0.1764402836561203, -0.2030535191297531, -0.5620075464248657, 0.36790013313293457, -0.41512078046798706, -0.37312957644462585, 0.27757418155670166, 0.4557487964630127, 0.37297236919403076, 0.2663814425468445, 0.4211885333061218, 0.6974472999572754, -0.3102853298187256, 0.626939058303833, -0.5194936394691467, -0.09301898628473282, -0.2718052566051483, 0.06006988137960434, -0.566800057888031, -0.13527823984622955, 0.023538393899798393, -0.1598571240901947, -0.11552757024765015, -0.19885514676570892, 0.1338401585817337, -0.11236593127250671, 0.03724461793899536, 0.555293083190918, 0.14739260077476501, 0.048565953969955444, 0.14830094575881958, 0.35988473892211914, -0.07124397903680801, -0.3929829001426697, -0.08201374858617783, -0.23960743844509125, 0.24064259231090546, 0.05250018835067749, 0.003238612087443471, 0.05402711406350136, -0.5126163363456726, -0.5674936175346375, -0.41237518191337585, 0.1189119964838028, -0.25946885347366333, -0.29201021790504456, -0.5654425024986267, -0.6647471785545349, -0.5756723880767822, -0.09685572981834412, -0.12906894087791443, 0.055502999573946, -0.7764924168586731, -0.24428708851337433, -0.28985339403152466, 0.02216392196714878, 0.695692777633667, -0.41634854674339294, -0.2304585874080658, -0.2719401717185974, -0.38532304763793945, -0.07628059387207031, -0.09885965287685394, 0.44734522700309753, -0.04385928809642792, -0.04401520639657974, 0.3269605040550232, -0.3059290051460266, -0.006416561082005501, 0.18317171931266785, 0.20509281754493713, 0.25932300090789795, -0.28613904118537903, -0.6257139444351196, 0.3809919059276581, 0.17529527842998505, -0.03868561238050461, 0.5315019488334656, 0.3413756489753723, 0.06566329300403595, -0.039981793612241745, 0.4872561991214752, 0.20307064056396484, 0.06478042900562286, 0.5388796925544739, 0.8826936483383179, -0.7025763392448425, -0.09492463618516922, -0.07773781567811966, -0.025459157302975655, 0.2239738255739212, 0.2939474880695343, 0.04362873360514641, -0.43001291155815125, -0.2488982081413269, 0.07105057686567307, 0.3312585651874542, 0.36050060391426086, 0.11487283557653427, 0.09392399340867996, -0.49236997961997986, -0.08356954902410507, 0.13351354002952576, 0.43733319640159607, 0.5972379446029663, 1.0870875120162964, 0.73996502161026, -0.5279160141944885, -0.18920983374118805, -0.08658724278211594, 0.4203396439552307, 1.2234419584274292, 0.9990545511245728, 1.0335564613342285, -0.6124076843261719, -0.45073118805885315, 0.0790020152926445, 1.0833666324615479, 0.7973309755325317, 0.9584940075874329, 1.0030858516693115, -0.3845754563808441, -0.22278904914855957, -0.04413396492600441, 0.40949124097824097, 0.23801209032535553, 0.8726769089698792, 0.07387002557516098, -0.6459726095199585, -0.271777868270874, 0.14499984681606293, 0.08208870887756348, 0.42469698190689087, 0.6768791675567627, 0.2494780421257019, -0.7368773818016052, -0.23097333312034607, -0.26536643505096436, 0.24280111491680145, -0.03421686589717865, -0.04519017040729523, -0.11097916215658188, -0.4939865171909332, -0.16433551907539368, 0.007109771482646465, -0.04129816219210625, 0.33589667081832886, 0.7116978168487549, 0.16242128610610962, -0.03732191398739815, -0.23450127243995667, 0.2958795428276062, 0.5743561387062073, -0.23702804744243622, 0.13525322079658508, 0.1193823292851448, -0.17133614420890808, 0.27739667892456055, 0.10962381958961487, 0.03517758846282959, -0.050422340631484985, -0.5108190178871155, 0.5933363437652588, -0.019476618617773056, 0.7545228600502014, 0.5528538227081299, 0.05566977709531784, 0.15171922743320465, 0.255719393491745, -0.21872687339782715, -0.18414853513240814, -0.03875919431447983, 0.4972541332244873, 0.7540332078933716, 0.07714149355888367, 0.12868113815784454, 0.10783380270004272, -0.6090072393417358, -0.055590394884347916, -0.24231591820716858, 0.13957750797271729, 0.008361117914319038, -0.3117396831512451, 0.14912420511245728, -0.4012039303779602, -0.44520303606987, -0.12771715223789215, -0.08766217529773712, 0.06391730904579163, 0.022835245355963707, 0.23742222785949707, -0.484396755695343, -0.3706801235675812, 0.17776276171207428, 0.5582075119018555, 0.2927294373512268, 0.6410226225852966, 0.3531012535095215, 0.20354942977428436, -0.37889352440834045, 0.49017155170440674, 0.6003657579421997, 0.6572570204734802, 0.36755043268203735, 0.3989129960536957, -0.12948070466518402, -0.14928682148456573, 0.5086247324943542, 0.28831350803375244, 0.20082929730415344, 0.4497998356819153, 0.15256235003471375, 0.30074360966682434, -0.10557377338409424, 0.131494402885437, -0.11193525046110153, -0.0859329104423523, 0.3647361993789673, 0.33764734864234924, -0.006745744496583939, -0.19283056259155273, -0.49937817454338074, 0.5404763221740723, 0.2017737776041031, 0.20192667841911316, 0.35308748483657837, 0.008700461126863956, -0.18918222188949585, -0.6470177173614502, -0.4589736759662628, -0.22950886189937592, -0.1489512324333191, 0.020428622141480446, 0.060240238904953, -0.6011257767677307, -0.9030792713165283, -0.34279346466064453, -0.05510484054684639, 0.3968159854412079, 0.31152471899986267, 0.8453080654144287, 0.285586953163147, 0.05329880118370056, -0.6524251699447632, 0.064820297062397, -0.06322917342185974, 0.37288278341293335, 0.34603938460350037, 0.08408460766077042, 0.0009800218977034092, -0.06989282369613647, 0.02224872261285782, -0.1070491150021553, 0.567609965801239, 0.311492383480072, -0.2379927784204483, -0.12667258083820343, 0.0888507217168808, 0.11168243736028671, 0.09627575427293777, 0.8170347213745117, 0.5427495837211609, 0.266630619764328, 0.2284916490316391, -0.6575000882148743, -0.01099058985710144, 0.16914521157741547, 0.34778377413749695, 0.333941251039505, -0.19251060485839844, -0.3457578718662262, -0.361211895942688, 0.35514071583747864, 0.04716622456908226, 0.42142635583877563, 0.41701266169548035, 0.16001540422439575, -0.3051344156265259, -0.4365462064743042, -0.12528203427791595, -0.11824661493301392, 0.05628732964396477, 0.1596578061580658, -0.1726088672876358, -0.3380626440048218, -0.5336657166481018, -0.3401457965373993, -0.19700676202774048, -0.04832030460238457, 0.2035408318042755, 0.6983706951141357, 0.07792618870735168, 0.5442004799842834, -0.007222392596304417, 0.038419973105192184, 0.1918753981590271, 0.17338210344314575, -0.3119371235370636, -0.4478151798248291, 0.4433390200138092, 0.13183043897151947, 0.2873412072658539, -0.10499325394630432, 0.41472646594047546, -0.4891999065876007, -0.9387951493263245, -0.21588349342346191, 0.16992047429084778, -0.1626737415790558, -0.2847040295600891, -0.4637642502784729, -0.48522624373435974, -0.48534926772117615, 0.000837040483020246, -0.3684169054031372, -0.13105130195617676, -0.05411051958799362, -0.539702832698822, -0.6761278510093689, -0.44430533051490784, -0.16994592547416687, 0.09282727539539337, 0.5217416286468506, -0.0031204584520310163, 0.08481153100728989, 0.20880348980426788, 0.16621775925159454, 0.06704053282737732, -0.3747042119503021, -0.07217723876237869, -0.30868446826934814, -0.12606513500213623, 0.5554575324058533, 0.33085817098617554, 0.039902329444885254, 1.3209401369094849, 0.5943214297294617, 0.02079896628856659, 0.048867035657167435, 0.09442099928855896, -0.1119452714920044, -0.2529630661010742, 0.06729589402675629, 0.19870667159557343, -0.02228637784719467, 0.11356397718191147, 0.05810866504907608, -0.26578521728515625, -0.23420672118663788, -0.5503467917442322, 0.48755118250846863, -0.04273466393351555, -0.08618686348199844, 0.09335806220769882, -0.13084553182125092, -0.8219403028488159, -0.9696320295333862, 0.6168962717056274, 0.5284571051597595, 0.29217636585235596, -0.10519666969776154, -0.40879157185554504, -1.2482143640518188, -1.2162749767303467, 0.532180905342102, 0.3850666284561157, 0.08286704123020172, -0.5218089818954468, -0.6267255544662476, -0.7554594278335571, -0.5354803204536438, 0.7674971222877502, 0.6033373475074768, -0.14334920048713684, -0.2578106224536896, -0.42344924807548523, -0.4163276255130768, -0.3919834494590759, 0.8615952134132385, 0.3334188163280487, -0.061890095472335815, 0.31734970211982727, -0.35607707500457764, -0.6301893591880798, -0.1983654797077179, 0.8381521701812744, 0.24103999137878418, -0.12736326456069946, 0.23061944544315338, -0.24970173835754395, -0.584128737449646, -0.4023066759109497, 0.20699858665466309, 0.08337743580341339, -0.39915576577186584, -0.08547474443912506, -0.47743526101112366, -0.5591884851455688, -0.40807604789733887, 0.3149564862251282, -0.41803357005119324, -0.4134375751018524, -0.6821635365486145, -0.15546557307243347, -0.11224370449781418, 0.1353563368320465, 0.46004292368888855, -0.3644340932369232, -0.18693073093891144, 0.0800212100148201, 0.05096554383635521, 0.3384081721305847, -0.15124334394931793, 0.2248414158821106, -0.07112445682287216, -0.03271718695759773, 0.3337744474411011, -0.10117217153310776, 0.0333055816590786, 0.012841878458857536, 0.5833496451377869, -0.27278342843055725, -1.0269875526428223, -0.8771331310272217, -0.22154682874679565, -0.18403196334838867, 0.21511942148208618, 0.6888055801391602, 0.2033478021621704, 0.2454388290643692, -0.26130011677742004, 0.5946670770645142, 0.21261891722679138, 0.661736249923706, 0.8228121399879456, 0.4283915162086487, -0.10388145595788956, -0.006559998728334904, -0.08660465478897095, -0.10464080423116684, -0.4710845947265625, -0.041921667754650116, -0.10862355679273605, 0.3018454611301422, -0.07819389551877975, 0.059340208768844604, -0.46436306834220886, 0.45567378401756287, 0.18866848945617676, -0.1288416087627411, -0.09148559719324112, -0.25299033522605896, 0.4501186013221741, -0.4878486692905426, 0.5691061615943909, 0.7096649408340454, 0.09987436980009079, -0.2245493084192276, -0.1134265810251236, -0.05954136699438095, 0.08973349630832672, -0.0834662914276123, 0.2482198029756546, -0.21749034523963928, 0.4048221707344055, 0.6533442139625549, -0.041737865656614304, 0.30418485403060913, 0.6058670282363892, -0.056623563170433044, -0.2067829966545105, -0.3062523603439331, 0.16202068328857422, 0.5150790810585022, 0.0748693123459816, -0.20216096937656403, -0.04991611838340759, -0.0080405343323946, 0.10878263413906097, 0.04339448735117912, 0.24574260413646698, 0.037931572645902634, -0.13427600264549255, 0.08099617809057236, -0.0954950675368309, -0.5064873099327087, -0.019155682995915413, 0.01164433266967535, 0.048949744552373886, -0.23789648711681366, -0.23259992897510529, 0.00998135656118393, -0.278786838054657, 0.05660557746887207, -0.7569642663002014, -0.6885977387428284, -0.6785635352134705, 0.034061212092638016, 0.33463922142982483, -0.28114867210388184, -0.31054264307022095, -0.6145429015159607, 0.6090567708015442, -0.8515329360961914, 0.0007022000500001013, 0.053653690963983536, -0.3984147012233734, -0.46635475754737854, -0.21133551001548767, -0.33221906423568726, -0.8878185749053955, -0.6290668845176697, -0.10203906148672104, -0.2950579822063446, 0.42884260416030884, 0.27141350507736206, -0.18233680725097656, 0.006330602802336216, 0.40836045145988464, 0.13430850207805634, 0.06208408623933792, 0.5928220152854919, 0.617033064365387, 0.1934785395860672, 0.09603418409824371, 0.03916190192103386, 0.49194589257240295, 0.07236967980861664, 0.26055434346199036, 0.2740657329559326, 0.5141811966896057, -0.2752135992050171, 0.3047231435775757, 0.1380789428949356, 0.10790684074163437, 0.5150436758995056, 0.20648033916950226, 0.33871251344680786, 0.12616531550884247, -0.2959904670715332, 0.12954165041446686, -0.484485387802124, -0.3534688651561737, 0.6151559948921204, 0.3875984251499176, 0.16312088072299957, -0.1400546282529831, -0.45775869488716125, -0.09778562188148499, -0.17175620794296265, 0.27891990542411804, 0.28860077261924744, -0.44353294372558594, 0.07969767600297928, -0.41938599944114685, -0.39398106932640076, 0.32281339168548584, 0.05992571637034416, 0.11874314397573471, 0.36178478598594666, -0.32191216945648193, 0.06792695820331573, -0.712281346321106, -0.28615954518318176, 0.043065931648015976, -0.331657737493515, 0.4150361120700836, -0.1295621544122696, -0.18763390183448792, 0.4023948907852173, -0.007673849817365408, 0.07350052893161774, -0.2579200565814972, -0.46909070014953613, -0.1463836431503296, -0.021768895909190178, -0.19460785388946533, 0.13439783453941345, 0.16395847499370575, -0.0433562695980072, -0.2575432360172272, 0.06319889426231384, 0.32655060291290283, 0.22831343114376068, -0.2512495219707489, 0.18517673015594482, 0.07543621957302094, -0.023270580917596817, -0.04775218665599823, -0.8990427851676941, -0.2821800708770752, -0.08351216465234756, -0.20090161263942719, 0.1741441935300827, 0.41469675302505493, 0.002625893335789442, -0.10767015069723129, -0.06894402951002121, -0.008667604066431522, -0.2022702395915985, 0.09202247858047485, 0.09412836283445358, 0.5658201575279236, 0.01136526744812727, -0.31817731261253357, -0.19178470969200134, -0.6325136423110962, 0.2511012554168701, 0.13997024297714233, -0.22468765079975128, -0.36940106749534607, -0.8961958885192871, 0.16576668620109558, -0.6257178783416748, 0.45647624135017395, 0.6469066739082336, 0.22259797155857086, -0.020435331389307976, -0.05890621617436409, -0.10967610031366348, -0.255961149930954, 0.024983104318380356, 0.24633194506168365, 0.3524209260940552, 0.0031988616101443768, -0.08693499863147736, 0.19308313727378845, -0.17752550542354584, -0.13327544927597046, 0.21091601252555847, 0.21613676846027374, -0.8394811153411865, -0.13308051228523254, 0.21275818347930908, 0.07943461090326309, 0.6933952569961548, 0.25853443145751953, 0.20896068215370178, 0.39856836199760437, 0.6205627918243408, 0.1652444452047348, -0.0210556760430336, -0.13174401223659515, 0.5253231525421143, 0.04772472381591797, -0.015720851719379425, -0.4137187600135803, -0.5846933722496033, -0.16715624928474426, -0.06638921797275543, 0.5264095067977905, 0.188694030046463, -0.18258169293403625, -0.9346066117286682, -0.05173414200544357, 0.042578548192977905, 0.6767861247062683, -0.05272699519991875, 0.5210168957710266, 0.8463077545166016, -0.0037618016358464956, -0.26061099767684937, -0.02283225581049919, -0.373455673456192, 0.13547340035438538, 0.5327306985855103, 0.4302576184272766, 0.310209184885025, 0.07550490647554398, 0.3514830470085144, 0.01384318433701992, 0.13771142065525055, -0.45724812150001526, -0.3180278241634369, -0.1688453108072281, 0.09787193685770035, -0.023578399792313576, 0.09882047027349472, -0.23053020238876343, -0.3708016276359558, 0.10019275546073914, 0.5956623554229736, -0.025541840121150017, 0.3720819652080536, -0.4548991620540619, -1.0434889793395996, 0.3721042573451996, -0.44721072912216187, -0.4597998857498169, -0.03553701564669609, -0.10296795517206192, -0.17965006828308105, 0.026139166206121445, 0.09170124679803848, -0.07680512219667435, -0.24514061212539673, -0.036317791789770126, 0.16117267310619354, -0.6374866366386414, -0.1407468318939209, -0.14814592897891998, -0.06694793701171875, 0.0076712965965271, -0.03413577377796173, -0.2260046750307083, -0.45748570561408997, -0.6147298216819763, 0.1209142655134201, 0.34047484397888184, -0.12000174075365067, -0.33601537346839905, -0.6199354529380798, -0.5181078314781189, -0.30324679613113403, 0.37207382917404175, 0.47799932956695557, -0.16613350808620453, -0.6299731135368347, -0.5142213106155396, -0.6945930123329163, -0.6161760091781616, 0.5317617058753967, 0.3541048467159271, 0.2812839150428772, -0.05963187292218208, -0.35352808237075806, -0.32834702730178833, -0.4240150451660156, 0.602074384689331, 0.4475333094596863, 0.15198259055614471, -0.09521555155515671, -0.4611881375312805, -0.14024417102336884, 0.21346987783908844, 0.6448885202407837, 0.9696129560470581, 0.6367102265357971, 0.2418406456708908, 0.7052096724510193, 0.14652055501937866, 0.2926968038082123, 0.6475822329521179, 0.7180240154266357, 0.40904566645622253, 0.42693665623664856, 0.25084221363067627, -0.11541739851236343, 0.3748316466808319, -0.054435353726148605, 0.5517204999923706, -0.026982130482792854, 0.23264940083026886, -0.06479034572839737, 0.2712908387184143, 0.2095191478729248, -0.29804325103759766, 0.03226384520530701, 0.5913800001144409, -0.4227784276008606, -0.5942357778549194, -0.7272902131080627, -0.3234267234802246, -0.7905616760253906, -0.1115853413939476, 0.05311475694179535, -0.5648479461669922, -0.9486598968505859, -0.23643916845321655, -0.7542467713356018, -0.9419776201248169, 0.06127522513270378, 0.10856001824140549, -0.5576015114784241, -0.44185173511505127, -0.7802475094795227, -0.9304743409156799, -0.42260676622390747, 0.23018792271614075, 0.33876222372055054, -0.5966911315917969, -0.46141237020492554, -0.7443698644638062, -0.5110500454902649, -0.487383097410202, 1.0170129537582397, 0.011816620826721191, -0.30648723244667053, -0.05992402136325836, -0.5229796767234802, -0.10553137958049774, -0.0063395071774721146, 0.12151968479156494, 0.05460270494222641, 0.1373073309659958, -0.11656925082206726, 0.5807397365570068, 0.24269433319568634, -0.14233984053134918, 0.2837671637535095, -0.24775253236293793, -0.15931351482868195, 0.2143017202615738, 0.5076869130134583, -0.10147137939929962, -0.42830440402030945, -0.43288013339042664, -0.3566109538078308, -0.32835307717323303, -0.6155085563659668, -0.13684070110321045, 0.2376859188079834, 0.4361934959888458, 0.398817241191864, -0.44720137119293213, -0.3805193603038788, -0.1553311049938202, 0.19758693873882294, -0.07059191167354584, 0.1168244481086731, -0.4203144609928131, -0.31458261609077454, 0.5185140371322632, 0.0018665619427338243, 0.25516095757484436, 0.42718058824539185, -0.0128034558147192, -0.4465845823287964, -0.035690613090991974, 0.0961574986577034, -0.2026313990354538, -0.32873252034187317, -0.0007802129839546978, 0.026504036039114, -0.26152288913726807, 0.5885342359542847, -0.9050162434577942, -0.6696675419807434, -0.25283491611480713, -0.1688840687274933, -0.004188280086964369, -0.15096892416477203, -0.3938952386379242, -0.48851385712623596, -0.3436693847179413, 0.12102584540843964, 0.2142045795917511, 0.11762416362762451, 0.21785560250282288, -0.1491137444972992, -0.23151320219039917, -0.1918887197971344, 0.1515839546918869, 0.5383331775665283, 0.383116751909256, 0.1052345260977745, 0.08532444387674332, -0.43815210461616516, -0.3055937886238098, 0.007292888127267361, 0.5395750999450684, 1.3687182664871216, 0.3791482746601105, 0.3958916962146759, -0.19760578870773315, -0.1341858059167862, 0.5556179285049438, 1.081233024597168, 0.9637722373008728, 1.4102022647857666, 0.9207096099853516, -0.17315255105495453, 0.06562872976064682, 0.4740852415561676, 0.14658677577972412, 0.8615256547927856, 0.6934199929237366, 0.3837466835975647, -0.47400805354118347, -0.2274499535560608, -0.0005611693486571312, 0.32674428820610046, 0.7782886028289795, 0.45191964507102966, -0.0030275334138423204, -0.6596693992614746, 0.26676419377326965, 0.4902619421482086, 0.33555686473846436, -0.14702144265174866, -0.39461585879325867, -0.12094385921955109, -0.369472861289978, 0.3904496431350708, 0.36299899220466614, 0.24158833920955658, -0.5538155436515808, -0.7029178142547607, -0.10991721600294113, -0.13912475109100342, 0.3508773446083069, 0.398973673582077, -0.08935456722974777, 0.01392512209713459, 0.026591697707772255, -0.1145620197057724, -0.2112068235874176, -0.0426255464553833, 0.20925723016262054, 0.2639719545841217, -0.2549024224281311, -0.12902438640594482, -0.45132535696029663, -0.5476828217506409, 0.5320150852203369, 0.08011213690042496, 0.6219093203544617, -0.23954373598098755, -0.009520272724330425, 0.20676684379577637, -0.20362834632396698, 0.20350168645381927, -0.7588722109794617, -0.38335785269737244, -0.202780082821846, -0.08570033311843872, -0.3953729271888733, -0.31266918778419495, 0.1840004026889801, 0.27857497334480286, 0.3027031123638153, 0.10459236800670624, -0.06324587762355804, -0.06451742351055145, -0.272263765335083, -0.038410283625125885, -0.33403027057647705, -0.3641839027404785, -0.46329861879348755, -0.251282274723053, -0.20951861143112183, -0.4697955548763275, -0.5446054935455322, -0.48449626564979553, -0.33939114212989807, -0.01327825803309679, -0.10630352050065994, 0.08768893778324127, -0.5549744963645935, 0.13222217559814453, -0.21575827896595, -0.07703721523284912, -0.2842676043510437, 0.57669997215271, 0.1349596232175827, -0.2809387147426605, 0.06550771743059158, 0.2667234241962433, -0.319530189037323, 0.5640992522239685, 0.4929783344268799, 0.6334963440895081, -0.026570912450551987, 0.9122962355613708, 0.006336735561490059, 0.05380450561642647, 0.18963810801506042, 0.7699251174926758, 0.18631933629512787, 0.45961982011795044, 0.5482522249221802, 0.02659798413515091, 0.180036723613739, 0.6605074405670166, 0.5206372737884521, 0.5182883143424988, 0.6366491913795471, 0.5419970154762268, -0.38056090474128723, -0.20671376585960388, -0.11522226780653, 0.33027684688568115, 0.676234245300293, 0.01565614342689514, 0.20929233729839325, -0.6150972247123718, 0.016627810895442963, -0.25975197553634644, -0.2825809121131897, -0.3983056843280792, -0.15078048408031464, -0.019633058458566666, 0.16696284711360931, 0.4708094298839569, 0.26592761278152466, -0.07340649515390396, 0.39973148703575134, 0.686959445476532, 0.6536120176315308, 0.04664185643196106, -0.12633934617042542, 0.12453094869852066, 0.3942335247993469, 0.01978496089577675, 0.07410959154367447, 0.0636485293507576, -0.3210930824279785, -0.2605679929256439, 0.0029462489765137434, -0.3934701979160309, -0.4003329277038574, -0.43249428272247314, 0.5432679653167725, -0.06651965528726578, 0.03012525476515293, 0.02985196001827717, -0.2432604730129242, 0.06438355892896652, 0.2907388210296631, -0.024569453671574593, -0.5170241594314575, -0.1984017938375473, 0.4645521342754364, 0.35335779190063477, -0.4228604733943939, -0.22107790410518646, 0.01197510864585638, -0.6698031425476074, -0.2327694296836853, -0.17992597818374634, -0.11295324563980103, -0.4748398959636688, -0.3924407660961151, -0.12738020718097687, -0.2627871632575989, 0.6009942889213562, -0.09169262647628784, -0.16789992153644562, 0.16763514280319214, 0.17586201429367065, -0.14080114662647247, -0.16666342318058014, -0.2023657262325287, -0.02210994064807892, -0.05185433477163315, -0.10136064887046814, 0.3212135434150696, 0.39997628331184387, 0.23212063312530518, -0.07394447177648544, -0.2540379464626312, -0.27286627888679504, 0.39414411783218384, -0.3195289969444275, 0.45754140615463257, 0.57355135679245, 0.057770512998104095, 0.05871545523405075, -0.1413809210062027, -0.06692293286323547, 0.20165778696537018, 0.24542714655399323, 0.4578332304954529, -0.041625961661338806, 0.6121991276741028, 0.15739907324314117, 0.1798938512802124, 0.31174302101135254, 0.5697746276855469, 0.08936592936515808, -0.17012570798397064, -0.10692104697227478, 0.16780763864517212, 0.5028402805328369, -0.2213900238275528, -0.08887648582458496, -0.11077485978603363, 0.05978046730160713, 0.17154936492443085, 0.07570011168718338, -0.007135978899896145, -0.1686631143093109, -0.5086310505867004, -0.2646327614784241, -0.07861177623271942, -1.0890004634857178, 0.11247862130403519, -0.5335283279418945, -0.633621871471405, -0.6395068168640137, -0.4220062792301178, 0.30953338742256165, 0.4555670917034149, -0.453684538602829, -0.04066740348935127, -0.27594053745269775, 0.2937817871570587, 0.34342509508132935, 0.15710857510566711, 0.3499739468097687, -0.7650623917579651, -0.5840946435928345, 0.3340874910354614, 0.5257396697998047, 0.31301867961883545, 0.12027242034673691, 0.07834182679653168, -0.3204721212387085, -0.8859703540802002, -0.32146474719047546, 0.5203041434288025, 0.8970853686332703, 0.47312432527542114, -0.20424622297286987, -0.311066597700119, -0.49614056944847107, -0.29511192440986633, 0.031806305050849915, 0.5303235650062561, -0.17293599247932434, -0.1550346165895462, -0.3718115985393524, 0.4509373903274536, -0.1457473486661911, -0.03666488081216812, 0.2711426019668579, -0.21675832569599152, -0.4783799946308136, -0.3557918965816498, 0.07008911669254303, -0.24327649176120758, -0.780282735824585, -0.43975138664245605, -0.268541544675827, 0.2072260081768036, 1.1749299764633179, -1.2352070808410645, 0.20166751742362976, 0.7903398871421814, 0.4590778350830078, 1.0406893491744995, 0.2392653375864029, 1.612675666809082, 0.8347164988517761, 1.4966541528701782, 1.1051101684570312, 1.1857060194015503, -0.46595048904418945, -0.9783439636230469, 0.027412965893745422, -0.309258371591568, 0.7920738458633423, -0.7177091240882874, -0.8685354590415955, -1.0903563499450684, -0.6269079446792603, 1.0413681268692017, 1.4719222784042358, 0.8154139518737793, -0.3944065570831299, 0.5682315826416016, -0.3265986740589142, 0.15797443687915802, -0.7309607267379761, 1.6680545806884766, 1.449586272239685, 0.6311838626861572, -1.089341163635254, -0.34145882725715637, -0.7721236348152161, 0.7884329557418823, -0.8085561990737915, 1.2691704034805298, 0.04072711244225502, 0.0633796975016594, 0.5782464742660522, 0.7615633010864258, 1.0822175741195679, 0.6363610625267029, -0.49469321966171265, 0.943206787109375, 0.4178465008735657, -1.2835140228271484, -1.4458813667297363, -1.3547184467315674, -0.7238596081733704, 0.20745167136192322, -0.5579268336296082, -0.5853488445281982, -0.6684524416923523, 0.1556217521429062, 0.5870888233184814, 0.3512211740016937, -0.06208949163556099, 0.8639271855354309, -1.7463382482528687, -1.3678573369979858, -0.03517664968967438, 0.3640439510345459, -0.22948771715164185, 0.4652901589870453, -0.37190407514572144, -0.08951454609632492, -1.1426719427108765, 0.914903461933136, 0.28632891178131104, -0.809897243976593, 0.35084015130996704, 0.7817704677581787, -0.2926694452762604, 0.22523123025894165, -0.0720253512263298, 0.3971189260482788, 0.4959666132926941, 0.6217929124832153, -0.793411135673523, -0.9089375734329224, 1.162777304649353, -0.7467550039291382, -0.6271302103996277, 1.0120002031326294, -0.39720669388771057, 1.2166111469268799, -0.049538902938365936, -0.8614355325698853, 0.04335169494152069, 0.4618304967880249, 0.7711665630340576, 0.15056093037128448, -0.8532692790031433, -0.2499285787343979, -0.03444841504096985, 0.6943965554237366, -0.20695635676383972, 0.6560550928115845, -0.7879422307014465, -0.6611757278442383, 0.8066484332084656, -0.3703189194202423, 0.10963132977485657, -0.5224575400352478, -0.37092921137809753, -0.158659890294075, 0.4277471601963043, 0.3287510871887207, 0.38196122646331787, -0.5905932784080505, -0.6531202793121338, -0.41002896428108215, -0.01859734207391739, -0.3511030375957489, -0.7015596628189087, -0.9000535011291504, 0.13857674598693848, 0.1808096170425415, -1.0959941148757935, -0.7944976091384888, 0.8264849781990051, -0.6248184442520142, 1.0530866384506226, 0.11529795825481415, 0.4029998183250427, 0.2188691645860672, -0.3797548711299896, -0.6620294451713562, 0.41952112317085266, 0.36879509687423706, 0.006209224462509155, -0.3691975772380829, -0.5729324221611023, -0.9958763122558594, -0.5417121052742004, 0.708381712436676, 0.5940293073654175, 0.5236070156097412, 0.24781446158885956, 0.35557231307029724, 0.6287357211112976, -0.39874809980392456, 0.7994182109832764, -0.668590247631073, 0.13316260278224945, 0.5702711343765259, -0.2099418342113495, 0.37933504581451416, 0.11627744138240814, -0.9555914998054504, 0.019717451184988022, }